{"layers":[{"out_depth":1,"out_sx":9,"out_sy":9,"layer_type":"input"},{"sx":3,"sy":3,"stride":1,"in_depth":1,"out_depth":20,"out_sx":9,"out_sy":9,"layer_type":"conv","l1_decay_mul":0,"l2_decay_mul":1,"pad":1,"filters":[{"sx":3,"sy":3,"depth":1,"w":{"0":0.25824958266497733,"1":0.27246480342858465,"2":0.12967532021391348,"3":0.12484851562733928,"4":-0.13948762951347443,"5":0.3968180391628487,"6":1.1845207211425777,"7":0.563937562763061,"8":0.8761994607175552}},{"sx":3,"sy":3,"depth":1,"w":{"0":0.6227247886003167,"1":0.4251122997544851,"2":0.35156789922608905,"3":0.1384888132780324,"4":0.3042306189270976,"5":0.10363426448645721,"6":0.16804255714260494,"7":0.937427397820553,"8":-0.2902987030789017}},{"sx":3,"sy":3,"depth":1,"w":{"0":1.0399600502905697,"1":1.0401458630066869,"2":1.0399958373432865,"3":1.0398679536911724,"4":0.4552966980367465,"5":1.0398390881415414,"6":1.0398038206385254,"7":1.0402498754737965,"8":1.0400056661285129}},{"sx":3,"sy":3,"depth":1,"w":{"0":0.5475486152122087,"1":0.5478241186607092,"2":0.5415956473350422,"3":-1.035338164015453,"4":0.5179235984089835,"5":0.5479589952075891,"6":0.5776714381452103,"7":0.5710968581589779,"8":-1.0893275628832475}},{"sx":3,"sy":3,"depth":1,"w":{"0":0.1270194572967591,"1":0.11656885741376233,"2":0.03344210077199866,"3":-0.14392384436081332,"4":0.13790033758292047,"5":0.19577999134817495,"6":-0.8629608389415301,"7":-0.11039442648740416,"8":0.39009888276397314}},{"sx":3,"sy":3,"depth":1,"w":{"0":-0.22281454071363516,"1":-0.22270153849895655,"2":0.48566016158284986,"3":-0.22270141962336962,"4":-0.19167810149503367,"5":0.5108905260173245,"6":-0.31134561817388395,"7":0.4004923167106876,"8":0.5048724119098145}},{"sx":3,"sy":3,"depth":1,"w":{"0":0.27375633648862957,"1":-0.26933789823895815,"2":-0.38826828671982017,"3":0.11718307646699722,"4":-0.2602474658613391,"5":0.23545523877491228,"6":-0.3410071971122495,"7":0.18650725061797696,"8":-0.5192236708426317}},{"sx":3,"sy":3,"depth":1,"w":{"0":0.8041381715806062,"1":0.804475887156661,"2":0.8042120604495259,"3":0.8040802045004828,"4":0.38993253546945955,"5":0.8040570006414948,"6":0.8040620761446734,"7":0.8045967646601555,"8":0.8042119377471172}},{"sx":3,"sy":3,"depth":1,"w":{"0":0.8039849769782412,"1":0.7094149183031865,"2":-1.0731425056831971,"3":0.7586104674163471,"4":0.5362522522768673,"5":-1.1792193302034177,"6":0.7888331459811464,"7":0.7953958961887669,"8":0.77324056298317}},{"sx":3,"sy":3,"depth":1,"w":{"0":0.5124909004057252,"1":0.47794501398342143,"2":0.8761669365718753,"3":1.0196501008215806,"4":-0.8374341866124391,"5":0.949452720857011,"6":0.8466834479747236,"7":0.2971698239161876,"8":0.3586222705317767}},{"sx":3,"sy":3,"depth":1,"w":{"0":0.4026636672479322,"1":-0.22230088638670412,"2":0.2134267690188936,"3":0.4032230988536076,"4":0.7875476224169139,"5":0.6711758583497254,"6":-0.2218221617775539,"7":0.34987468705142477,"8":0.6600514880908491}},{"sx":3,"sy":3,"depth":1,"w":{"0":-0.3233284155899525,"1":-0.2791185684726854,"2":-0.22886676824821856,"3":0.02782134944376127,"4":0.8857882521337628,"5":0.14682043415041315,"6":-0.3237354600757234,"7":0.2356217631617683,"8":0.4741460214177227}},{"sx":3,"sy":3,"depth":1,"w":{"0":-0.2235009850373504,"1":-0.4004806549818312,"2":-0.14034926344660575,"3":-0.3469314927684121,"4":-0.22532058060084909,"5":0.5860741351361335,"6":-0.24182487790746193,"7":-0.3768012633426991,"8":-0.3052501611711308}},{"sx":3,"sy":3,"depth":1,"w":{"0":-0.9712435749342258,"1":0.5434179120688276,"2":0.629098503054642,"3":0.5964896838968557,"4":0.5588376768569356,"5":-1.1637682713066035,"6":0.5714273683920564,"7":0.5621596875215239,"8":0.5175361864859287}},{"sx":3,"sy":3,"depth":1,"w":{"0":-0.5724190388912591,"1":-0.5724415741862455,"2":-0.5724077136538426,"3":-0.5724855187309043,"4":-0.5670956915675932,"5":-0.5724101518071455,"6":-0.010016095290551015,"7":-0.00808769443070558,"8":-0.011408226499394844}},{"sx":3,"sy":3,"depth":1,"w":{"0":0.6911961939935145,"1":-0.8681017667235281,"2":0.6500513080080059,"3":-0.7912031510935867,"4":0.5707567523665431,"5":0.6538483436872196,"6":0.6692919093715284,"7":0.6878612147942789,"8":0.6723290634926881}},{"sx":3,"sy":3,"depth":1,"w":{"0":0.6965886544339184,"1":0.6801434825095782,"2":0.6958585609652247,"3":0.6959886948833305,"4":0.406767787855006,"5":-0.9491754534280709,"6":-0.6799730128741779,"7":0.5555517448743783,"8":0.6631663620452932}},{"sx":3,"sy":3,"depth":1,"w":{"0":0.2507525362142033,"1":-0.4351260911909737,"2":-0.5803935472773744,"3":0.34502100643090894,"4":0.3302227547778927,"5":-0.5504852165737489,"6":0.3701005353091975,"7":0.48505507353411365,"8":0.4354577591339974}},{"sx":3,"sy":3,"depth":1,"w":{"0":-0.39192960680621836,"1":0.46354847829767315,"2":-0.38999113110626354,"3":0.5037286149420797,"4":-0.32844086749165724,"5":-0.3713594978708825,"6":-0.08542929013060424,"7":-0.06499044853860338,"8":0.10627576091612904}},{"sx":3,"sy":3,"depth":1,"w":{"0":0.4357635241230015,"1":-0.6861703474343402,"2":-0.7705436802918513,"3":0.38473151454791776,"4":0.40911313481832234,"5":0.3529778130742047,"6":0.4364472095555652,"7":0.4355314298223024,"8":-0.7399432464359674}}],"biases":{"sx":1,"sy":1,"depth":20,"w":{"0":0.00451729917178324,"1":0.027170024916378918,"2":1.267585347463354,"3":-0.2554241886812803,"4":0.06891369683578898,"5":0.06029057099694458,"6":0.04568304975344733,"7":0.999124602638387,"8":-0.10580742446364791,"9":0.27224488052616774,"10":0.3311807597461061,"11":0.054682459096421235,"12":0.11057125284039734,"13":-0.237378789217512,"14":0.0026674929057507375,"15":0.12671362079864204,"16":-0.010027267164444085,"17":-0.01927682169984956,"18":0.02147345565205604,"19":-0.11277648576389743}}},{"out_depth":20,"out_sx":9,"out_sy":9,"layer_type":"relu"},{"out_depth":81,"out_sx":1,"out_sy":1,"layer_type":"fc","num_inputs":1620,"l1_decay_mul":0,"l2_decay_mul":1,"filters":[{"sx":1,"sy":1,"depth":1620,"w":{"0":-0.11895930807415336,"1":-0.06958972410747902,"2":0.10562919530906119,"3":0.016779652266557976,"4":-0.13247895820438627,"5":-0.20893723653170315,"6":0.06850047194436529,"7":0.12081640710464141,"8":-0.16032675777987213,"9":-0.12202591752616368,"10":0.16059088932310558,"11":0.052266994380929084,"12":-0.05047319403697912,"13":0.03588903309841992,"14":-0.0891562798820274,"15":0.5405317217972959,"16":-0.05849762669566993,"17":-0.26626909382111097,"18":-0.07528542878387666,"19":-0.2975986506962654,"20":0.013569498940413522,"21":0.011320621051750353,"22":0.06833230410948109,"23":0.0009122165073273156,"24":0.08992204040061479,"25":-0.06741915328268988,"26":-0.015176805229232796,"27":0.02267905493994411,"28":0.025586706959334737,"29":-0.00397902862465965,"30":-0.047070801711013355,"31":-0.03852099604541011,"32":-0.17992527670224967,"33":-0.01137793481482209,"34":-0.11825457723666953,"35":-0.05232859359481263,"36":-0.013941656878434098,"37":0.06417657522610569,"38":0.06450679669075059,"39":-0.008332714664971283,"40":0.01815005084162572,"41":-0.004206023791438862,"42":0.020744234303912635,"43":-0.002985952882090165,"44":0.0015989782296415302,"45":-0.01319517552228076,"46":-0.05930135074060781,"47":-0.02888942861908335,"48":-0.004903034140476363,"49":-0.004813481426918863,"50":-0.004411489734235268,"51":-0.005187395529482476,"52":0.046842059437262225,"53":0.017319930443407197,"54":-0.011562880964676522,"55":-0.004720317059726619,"56":-0.01927203043513756,"57":-0.010234440712487625,"58":-0.04022311581850916,"59":-0.009976774031113017,"60":-0.005588659091855453,"61":0.008414131359126786,"62":0.02772758253249775,"63":-0.014629333362149234,"64":-0.0003025124049686687,"65":0.009825524022713911,"66":0.0015022351477768211,"67":-0.043028328361990824,"68":0.027678516439241636,"69":0.005725135382026506,"70":0.008967088031385346,"71":0.005799416859249897,"72":-0.0033619526636278632,"73":0.006126286767631895,"74":0.006223205739520539,"75":-0.0054978571094404394,"76":0.014258792089671726,"77":-0.04623454133805509,"78":0.0009497602335883558,"79":0.012567513585419446,"80":0.008237410412219271,"81":0.0018199586630894319,"82":-0.02105563361117264,"83":0.00023521931799397406,"84":-0.027099411338570523,"85":-0.005289894089705745,"86":-0.021864209239332934,"87":0.012063079698192935,"88":-0.007075842433675635,"89":-0.004256673103446164,"90":0.007562788659625706,"91":-0.0017361397792718958,"92":-0.0012704513175816762,"93":0.020934446665371063,"94":0.019061822353900932,"95":0.0037241981495657593,"96":-0.0005990672122022677,"97":-0.0011179330152234466,"98":0.00045205733898031014,"99":0.007889076601720975,"100":0.01204371784172678,"101":0.0019000792328347708,"102":-0.008588285264196803,"103":-0.01110863416046263,"104":0.009268266051872493,"105":-0.013290965715258708,"106":-0.0015761363189741118,"107":0.013902864636023428,"108":-0.014736732513056974,"109":-0.007627914336247163,"110":-0.0021789802255787615,"111":-0.00838463402065215,"112":-0.006342230743260497,"113":0.006143666216707207,"114":0.0007681894626847927,"115":-0.013894838694078813,"116":0.00038176558411198854,"117":0.0018502990517699762,"118":0.013151692808487417,"119":-0.007714556292484287,"120":0.0030604868549044873,"121":-0.0008334447971308759,"122":-0.000603932952325294,"123":-0.014570214180077087,"124":0.007458793783346533,"125":-0.005175565572953142,"126":-0.01056120053980546,"127":-0.004774114283675954,"128":0.0007984244184518882,"129":-0.0000036656083851326906,"130":-0.00886279608391519,"131":0.0017249483241804846,"132":-0.018441111897567235,"133":0.008864273632173965,"134":-0.014894545486653327,"135":-0.002980101278940476,"136":-0.004329064092887492,"137":0.014620563994061394,"138":-0.00986424278425547,"139":0.013224850251384276,"140":-0.006171019911801671,"141":-0.011466344061954676,"142":0.006607640227927707,"143":0.012251256545058164,"144":-0.011700419210459626,"145":-0.0028805468500793887,"146":-0.004357927782292851,"147":-0.0026714682395437483,"148":0.0020249241268882655,"149":-0.007300212662631263,"150":0.0023259074875036628,"151":-0.013741486784956824,"152":-0.00318822834005668,"153":-0.0007637996607398628,"154":-0.0006096745325150346,"155":-0.0034127740001286782,"156":-0.003933314036469803,"157":-0.008847671220274154,"158":-0.027761652407438116,"159":-0.002709757467648678,"160":0.005711495871408601,"161":0.010637486904186547,"162":-0.014748612814294178,"163":0.005723936200080899,"164":-0.004808584195589213,"165":-0.033684260483353434,"166":0.012079752151270705,"167":0.005934737842991607,"168":0.00000703736794484258,"169":0.02259983672034685,"170":-0.011112451876724468,"171":0.008745181012866825,"172":0.011336499805601113,"173":-0.026028084270728856,"174":0.008540479652477983,"175":-0.003080103803378256,"176":0.02391357124113948,"177":-0.006930339724615059,"178":-0.02366592561503009,"179":0.012893581552747842,"180":0.011423324105915468,"181":-0.10306911349458105,"182":0.10551321621505413,"183":0.0957887537602426,"184":-0.020852657874181602,"185":0.17705435707844208,"186":-0.03792104509944934,"187":-0.032362240453116635,"188":0.0658506446008444,"189":-0.2539287683137297,"190":0.0006106255374367518,"191":-0.008264593073685147,"192":-0.006335986547744922,"193":0.08197989967991523,"194":0.2911140656150837,"195":-0.03398630106574815,"196":-0.12613017028972948,"197":-0.10492843818442764,"198":-0.3040512968284162,"199":0.0668929038592081,"200":0.06025252908627925,"201":-0.01920374366909575,"202":0.033013680370312465,"203":0.029300996826400003,"204":0.0161984431486508,"205":0.02584129442349701,"206":0.07915318360988542,"207":-0.05014093629875328,"208":-0.011262284790158138,"209":-0.027219529036235885,"210":-0.017274120845705346,"211":0.0498268384441068,"212":-0.06559854252863498,"213":-0.009325121107042185,"214":-0.06284559447430585,"215":-0.032661019324681996,"216":0.032638765812418986,"217":0.03158217285926524,"218":-0.038687169580327724,"219":-0.029752084097559205,"220":-0.0037977191743369643,"221":-0.01512298096915949,"222":-0.030858480741009414,"223":0.00895282799900698,"224":-0.021766897542203085,"225":0.01489983310194624,"226":-0.008519762191001453,"227":0.04617436433346595,"228":0.002499852071948002,"229":-0.003757520821385414,"230":-0.0011173772556029669,"231":-0.03308153288522118,"232":0.015994560667940416,"233":-0.0015800460035724786,"234":0.027511230001892237,"235":-0.013987787696600286,"236":0.007173095149908668,"237":-0.004071874635592103,"238":0.0023681587041577473,"239":-0.011667013987121413,"240":-0.016047474688025073,"241":0.001449451417931495,"242":0.002197605170336352,"243":-0.010662378207041169,"244":0.011831509395079728,"245":-0.0032833393831274054,"246":0.013033667812501116,"247":0.0010716491152506166,"248":0.006219150742847546,"249":0.009153010785358235,"250":0.0009466789680077751,"251":0.007580142769422658,"252":-0.010872943322984514,"253":0.0058948951158428,"254":0.00031017065140800644,"255":0.0013850818523834056,"256":-0.00013581054391161582,"257":-0.007614401500673,"258":0.004297607281769402,"259":0.0017957396228898144,"260":0.0031336600543144418,"261":-0.011050672228143236,"262":0.008496193932367897,"263":-0.0020391535805974847,"264":0.01238767462525876,"265":-0.0003022925959623467,"266":-0.0040502261725713406,"267":-0.005302520332030096,"268":0.0006876428606832755,"269":-0.005214881803071695,"270":-0.009750202689064142,"271":-0.008952047219400834,"272":-0.004967716530840561,"273":0.0041492807726426495,"274":-0.0009363689099567393,"275":0.00028197315781543474,"276":-0.005028271924204747,"277":-0.0015687620651033923,"278":0.013579004225044261,"279":-0.002340631665227453,"280":-0.002221090446677897,"281":0.001564381916092365,"282":0.015952179278479462,"283":-0.003977936527385908,"284":-0.016539212583157357,"285":-0.009604363793025844,"286":-0.0011076539264981001,"287":-0.01921125582750773,"288":-0.002016370574858497,"289":0.0007562296494087248,"290":-0.0003155368501074389,"291":-0.0014140320400281355,"292":-0.006528461892661381,"293":0.007054772822946229,"294":-0.01241795777730772,"295":-0.005799272939148764,"296":0.002031963992063207,"297":-0.0003421028867705441,"298":0.02424794762405326,"299":-0.003032919526982432,"300":-0.005001494244657347,"301":-0.0019796262478195153,"302":0.02822549929766563,"303":-0.003658984533071105,"304":0.005493678458786941,"305":-0.002739656613656139,"306":-0.012244297211767572,"307":-0.023363009876616367,"308":0.004769045212226918,"309":-0.0018114184648497268,"310":-0.00618669103496068,"311":-0.016736160377731832,"312":-0.03440573263454812,"313":0.017225769370906623,"314":0.01462882218492343,"315":-0.002487923850390581,"316":-0.0021899755483425045,"317":0.003876595518789363,"318":-0.0015315430884917094,"319":-0.0017623029796272121,"320":-0.01289881119540979,"321":-0.0040398689762926945,"322":0.000833023502345129,"323":0.002899695329941399,"324":0.005758316827676669,"325":-0.005456560725492942,"326":-0.004891930929900648,"327":-0.0023618598410902877,"328":-0.0006181274967176062,"329":0.0015797780762390275,"330":0.001868278833792511,"331":-0.012419154157504931,"332":0.009969906638809345,"333":-0.0015047246866639113,"334":-0.00707259946069025,"335":-0.003295766352785653,"336":-0.006759485422920525,"337":-0.0001053103810609949,"338":-0.016069574842008275,"339":0.000003310179063731208,"340":0.016307818587285125,"341":-0.014400538899011875,"342":-0.017751369634051384,"343":-0.0011323124957910112,"344":0.030038344331411962,"345":0.01570443626810227,"346":0.018787393484080806,"347":0.03320093473351872,"348":0.010663300430499087,"349":0.00398261675939178,"350":-0.009135244152371548,"351":0.017010154228269,"352":0.01173524029281595,"353":0.0025385056339801634,"354":-0.0075334960132196005,"355":0.010020492832715347,"356":0.025706533137957694,"357":-0.011387659439209177,"358":0.0100105971393703,"359":0.007589209538807917,"360":0.0029804269893841167,"361":-0.008604317247235744,"362":0.024259340557325607,"363":0.021539489759203785,"364":-0.025588781429983463,"365":-0.02468476345489428,"366":-0.005441600868590896,"367":-0.028089856542579887,"368":-0.0008636707944710215,"369":0.02660080013923565,"370":0.0022665415506229296,"371":-0.011975095921672846,"372":-0.02241080325882715,"373":-0.05720924396521979,"374":-0.017825291181277177,"375":-0.007731312365261185,"376":0.055990640273218005,"377":0.005473768302669247,"378":-0.036724973633118135,"379":-0.0023671755202910364,"380":-0.012663918679635561,"381":0.004470074559735603,"382":-0.002247484469128375,"383":0.004740273821664139,"384":0.0008112420639967888,"385":-0.006288791149762789,"386":0.010662689261949302,"387":-0.0017589861292828211,"388":0.004233629916880876,"389":0.007262377697570135,"390":-0.00457699791613294,"391":0.00870958144602212,"392":0.01519618420664119,"393":-0.01334723681506713,"394":-0.0027572197434929634,"395":-0.0019386010263031642,"396":0.00810640705341012,"397":-0.009910430569592905,"398":0.004031219801739353,"399":-0.003520912733774075,"400":-0.0042061183390285015,"401":-0.0007350541879370846,"402":0.011862967401887524,"403":0.0011913247222331232,"404":0.010032258929363698,"405":0.0043313639816856325,"406":0.005504252694482926,"407":-0.01091198161449443,"408":0.002512655790378744,"409":-0.010184131100838182,"410":-0.014566134246195699,"411":0.002879223916802528,"412":-0.0004814755292364844,"413":-0.001832566613732965,"414":-0.007688877013572207,"415":-0.002342826595503773,"416":-0.0069307605224462505,"417":-0.0037671954361238806,"418":-0.024969130541391906,"419":-0.006875911249127507,"420":0.010255015873156281,"421":0.004944064483697435,"422":-0.0015483317884428822,"423":-0.004936960108539061,"424":0.008571474511902877,"425":0.007042073675586515,"426":-0.011169119414068337,"427":-0.0018658814174464255,"428":-0.0002927361878610998,"429":0.005247004821771457,"430":0.0018723015222088476,"431":-0.006065908241482306,"432":0.03397588552803927,"433":0.004330163855946081,"434":0.021781112957419125,"435":-0.0029097556087066914,"436":-0.0014220405624474353,"437":-0.0003179141178403813,"438":0.005212465413945158,"439":0.001963776646028324,"440":-0.009489978046106172,"441":-0.0029510377856498413,"442":0.0075745164359477994,"443":-0.003438533028681649,"444":-0.016029017648701432,"445":-0.006121913506138841,"446":-0.006760378920062418,"447":-0.007553607411663638,"448":0.00012009084238958254,"449":-0.0009455181530198955,"450":-0.0010250528478337095,"451":-0.009040034083429366,"452":-0.024294537252275452,"453":0.006805889110145985,"454":0.004864475533457872,"455":-0.0005052962387482163,"456":0.0024932827339522235,"457":0.003142570485341738,"458":-0.013629480712275854,"459":0.003417159865242227,"460":0.008186634222998337,"461":0.0010694337600768457,"462":-0.007885552380558984,"463":0.0009932593046250015,"464":0.008610653094101688,"465":0.0002602589767658222,"466":-0.0010423140903863127,"467":0.014754560977328815,"468":0.0000022078281751754507,"469":-0.00424499724782005,"470":-0.0006068810934182568,"471":0.0025009659230290655,"472":0.01611078498138705,"473":0.00000906545672441722,"474":-0.006708033354906751,"475":-0.002833703663884683,"476":-0.00022912215666732463,"477":0.0002786974759970874,"478":0.002707181775744422,"479":-0.0018003507541163124,"480":-0.008496775254449269,"481":-0.006258122593082174,"482":0.004725665052460466,"483":-0.0009172107257829453,"484":-0.011377107806233818,"485":-0.0039039949647327265,"486":-0.002930471946562489,"487":-0.0013306959319590364,"488":-0.0032949728727803334,"489":-0.0037984325547644575,"490":-0.0020880488018125676,"491":-0.013469479589960911,"492":-0.007185079462810715,"493":-0.0001840889932168171,"494":-0.008550258186742458,"495":-0.001119954849162702,"496":-0.0005906811345922576,"497":0.0023143610080540887,"498":-0.013779673455703877,"499":-0.0004970503336416392,"500":-0.005509752333295117,"501":-0.00649981808275264,"502":0.024557557679595356,"503":0.0032531279523578364,"504":-0.0007170272045450963,"505":-0.003912024902832031,"506":0.0013646721633720064,"507":-0.02574948158874287,"508":0.0026590098081624054,"509":-0.0032510656707498697,"510":0.00033691269523587,"511":0.0029516109080721152,"512":-0.015023364017406605,"513":-0.0001337740774286454,"514":0.008472160509724718,"515":0.0070302371134469905,"516":-0.0006024047415764558,"517":-0.006581991317291702,"518":-0.025429565025204836,"519":0.0018616530139482165,"520":-0.01992568312659743,"521":-0.013576401841211377,"522":0.02116254485431965,"523":0.005002520770638071,"524":0.017614856593042835,"525":-0.02630041657648124,"526":0.018190570588307083,"527":-0.011768970861318194,"528":0.011902436974019246,"529":0.013776445181335615,"530":-0.004899592310509091,"531":0.01454266347189239,"532":-0.028845507242555656,"533":0.0011824126734411742,"534":0.013409255241532175,"535":0.01696827251093148,"536":-0.005845275662899841,"537":0.0047812809267969185,"538":-0.01585881847917638,"539":-0.016425269977595403,"540":0.012285084406810585,"541":-0.0020028264240936136,"542":-0.0046823360330807235,"543":-0.01040008174086558,"544":-0.002967234986349436,"545":-0.009962468276475348,"546":-0.02617691023327377,"547":0.0186383037612951,"548":-0.008348242687667675,"549":-0.00625835796995741,"550":0.0070257446172665465,"551":-0.014492143468253232,"552":0.01336281883452749,"553":-0.014811134813926397,"554":0.019176892499613907,"555":-0.0036437987756729774,"556":-0.0040891074207027745,"557":-0.005494082018045682,"558":-0.01186460830932896,"559":0.0015917549729452562,"560":-0.008981617902875258,"561":-0.0026903825847224895,"562":-0.00332866382075307,"563":-0.005671002201883811,"564":-0.003651633503163155,"565":0.00550409171455781,"566":-0.00011267838644666428,"567":0.0034744257930730427,"568":0.00011504615770878708,"569":0.004708400305143896,"570":0.0006802384725983514,"571":-0.028832428204378573,"572":-0.002902797776093825,"573":0.0016085542035069714,"574":-0.014978044413900287,"575":-0.008383088082622144,"576":-0.01035604813732806,"577":0.0029029839501957862,"578":-0.013107462384318572,"579":0.004332054073385385,"580":-0.001414782568344599,"581":-0.0018615844687080983,"582":-0.01618473869369,"583":-0.0005630059516150483,"584":-0.012099128943632513,"585":0.0033354525442991926,"586":-0.020102246177353744,"587":0.01909421232105166,"588":0.0011409594515173957,"589":0.009220948030971175,"590":0.012707135906579816,"591":-0.000053751985062788765,"592":0.012227643280613994,"593":0.00705230799373755,"594":-0.0009187428371538758,"595":-0.0027669270751797003,"596":0.0004738615644212203,"597":0.00033908231091142496,"598":-0.0051234864378649735,"599":0.001983720946722702,"600":-0.0018426556568087848,"601":0.006316432522787498,"602":-0.011808737378324316,"603":-0.008312755673488987,"604":-0.011872789772041623,"605":-0.0006333381780390527,"606":0.0032058980967401337,"607":0.011752440673104691,"608":-0.005639128647017806,"609":0.005143284977768548,"610":-0.0013716852230112628,"611":-0.008564321166307735,"612":0.003555010898765012,"613":-0.0034095340994030675,"614":-0.009061980882255884,"615":-0.006184714834220531,"616":0.009266521301956458,"617":-0.0017244905480518413,"618":0.017579180042263175,"619":-0.006171188122913309,"620":-0.008482125073867216,"621":-0.011601744239481182,"622":0.013586451316249791,"623":0.003515264948722155,"624":0.017762918261007746,"625":0.004556051463619774,"626":-0.010996565998962824,"627":-0.01630519939539015,"628":-0.0033389942608697426,"629":-0.002223694387308577,"630":0.003728984392118224,"631":-0.012552636744880614,"632":0.013576194958640734,"633":0.0022617530598006198,"634":0.004189367325777908,"635":0.0028892493055500683,"636":-0.00505640557869316,"637":0.0076419856918253795,"638":-0.007531128426736667,"639":0.0048317829308956225,"640":-0.0019370026087835092,"641":-0.001971855610423891,"642":-0.005409337660803831,"643":0.00011898778797536969,"644":0.00034145849767708373,"645":0.0033036387539418463,"646":0.00274293717600652,"647":0.003401776332576002,"648":0.002492121962800392,"649":0.0070792747411045345,"650":0.0010028557745064013,"651":-0.009750029831572941,"652":0.014427814432295022,"653":-0.002320512758938571,"654":0.003197915925427804,"655":0.00016696304609355322,"656":0.001574471719302347,"657":0.0025440689614140894,"658":0.003753852359823908,"659":-0.002961756899242775,"660":-0.00026103666661468427,"661":-0.002102234804137547,"662":0.004448246668660523,"663":0.005193971004399546,"664":-0.003185264729993939,"665":-0.006215071029981942,"666":-0.004053732686282331,"667":-0.003348949859855615,"668":-0.002674944368844653,"669":-0.0035859802231999085,"670":0.00045631327158960944,"671":-0.014462986709210611,"672":0.00476734702269701,"673":0.0034251378174932185,"674":0.0012320025836298997,"675":-0.0014141356319203964,"676":-0.0037305695732960244,"677":0.004968557849946295,"678":-0.0091840028682136,"679":-0.00026461490255740624,"680":0.0061117990017798786,"681":0.007632417291236023,"682":-0.011604165192908364,"683":0.0005886040729382935,"684":0.004813717446138829,"685":-0.0002469244029699458,"686":0.001090937841469664,"687":0.013536727188135998,"688":-0.0004351892119905959,"689":-0.0073937111143588955,"690":0.008707283149400847,"691":0.0032522690819863052,"692":-0.004252840171203861,"693":0.002212923557833225,"694":-0.000955368315626014,"695":-0.003444764335357111,"696":-0.0022096706337128126,"697":-0.007524053682944803,"698":0.007370078644981836,"699":-0.0028187339753999396,"700":-0.006713515416092634,"701":0.02056821600145996,"702":-0.00311739269216513,"703":-0.007191517338474484,"704":-0.010425352302639778,"705":-0.02924710834050729,"706":-0.010899197444937253,"707":0.010760727185891984,"708":-0.0338655593012083,"709":0.005955323132325078,"710":0.003070480877829772,"711":-0.005615348968935251,"712":0.010561759695950527,"713":-0.011816748244674975,"714":0.022361718819830956,"715":-0.002126502035798656,"716":-0.021913824460485308,"717":0.012407319241025276,"718":-0.006455044487178213,"719":-0.0201166462831656,"720":0.005075008682404464,"721":0.002932377443395149,"722":0.005758830464363072,"723":0.004208664664291554,"724":-0.027195507238367174,"725":-0.0021634036903878965,"726":-0.004655460095404428,"727":-0.00295158435103074,"728":-0.0036889156280334686,"729":-0.0036769655794572044,"730":-0.006877258100493765,"731":0.008053374393395641,"732":-0.007257308931887804,"733":0.004878452410299143,"734":-0.03178043762371588,"735":-0.00711766728423604,"736":0.0036673844010638875,"737":0.0007550928973565346,"738":-0.020114037647464743,"739":-0.007691555362342017,"740":-0.005554748691917014,"741":0.006477491701077264,"742":-0.01565438878564285,"743":0.0010950597015158305,"744":0.0037106921002008427,"745":-0.01933104577149276,"746":-0.0063835530208556385,"747":0.008137055765611674,"748":-0.01080081403398473,"749":0.0024032984792479797,"750":0.017174049578767083,"751":-0.00696045762496015,"752":0.03123204147085606,"753":0.0017926454728881276,"754":0.004451653051786202,"755":-0.001068415194350947,"756":0.0001987894340492833,"757":0.0034375556353569313,"758":-0.005120794185758727,"759":-0.00008028812354388264,"760":0.011824307154362348,"761":-0.0077818628855434585,"762":0.00561510617452895,"763":0.009504869629594563,"764":0.015553928517821187,"765":-0.0008819785581467657,"766":0.006374099365932432,"767":-0.005055592379370016,"768":0.0012342540967046913,"769":-0.0075873412164521575,"770":-0.009411437862735314,"771":-0.017546487721364606,"772":0.0021848504572859464,"773":-0.004258363677229078,"774":0.011716278461646943,"775":0.00035623255404134595,"776":0.0021731058327300063,"777":0.0006112928612965148,"778":-0.015069242999702689,"779":-0.004057188572102423,"780":0.009234622350769973,"781":0.0016549772671976685,"782":-0.006136341143485312,"783":0.0017129505320402502,"784":0.007449735605430447,"785":-0.012973303476582484,"786":0.0006969985531494384,"787":0.011256328250960363,"788":0.001065851074486214,"789":-0.007084428767268378,"790":-0.011089806867191307,"791":0.02218752813206598,"792":0.0047822504267530696,"793":0.0036895857717948147,"794":-0.015050171334445127,"795":0.0008533604107107614,"796":-0.002494803409620193,"797":-0.0011232111274082598,"798":0.005206558877486123,"799":0.0009435821828982422,"800":-0.000532191796486408,"801":-0.0011974304660119694,"802":0.01492790458762585,"803":-0.0006627246701868318,"804":0.00788379378014219,"805":-0.010202950675530698,"806":-0.00802793099035413,"807":-0.019511725229277417,"808":0.00770830225538392,"809":0.0005830891542478419,"810":0.010117168435586977,"811":-0.015465529549146088,"812":-0.01805422550174083,"813":-0.005310526871506897,"814":-0.0034551501328795985,"815":0.00008104295253204491,"816":-0.003534881135955823,"817":-0.021214092922415356,"818":-0.015416883916484214,"819":0.0007643561172027992,"820":0.01994249383858211,"821":-0.006669201647196322,"822":0.021976509602725503,"823":0.0016663062327299414,"824":0.028611563832414245,"825":0.012049713299789874,"826":0.006127740971061394,"827":-0.026774816987131397,"828":0.001621709777099054,"829":0.0011038846705791992,"830":-0.006450305428953656,"831":-0.005485758968812807,"832":-0.011415377358605844,"833":-0.0035093048582030776,"834":0.010573019511181359,"835":-0.007653057167260765,"836":0.003994243920642251,"837":0.005967911688606072,"838":0.006694219450880491,"839":-0.0018480960167881688,"840":-0.0012594953679332436,"841":-0.0015816524520426325,"842":0.01794455268245692,"843":-0.002923237667013276,"844":-0.00950093694748359,"845":0.0005197310919217336,"846":-0.000984728254491832,"847":-0.022224586790286098,"848":-0.0022461043426808824,"849":-0.0023355748216367903,"850":0.00046315672669812306,"851":0.006884954111836407,"852":0.015838368496930353,"853":0.0008387319598644809,"854":-0.007037980578607017,"855":-0.002590185249312979,"856":0.0022632081186957443,"857":0.0042125045404652105,"858":0.004407091397006495,"859":-0.0032387490531448054,"860":-0.01125391801171412,"861":0.008024556703802203,"862":-0.01861514040134319,"863":-0.005448180311511559,"864":-0.016899926869597338,"865":0.0007188022827474217,"866":0.0049316312432422325,"867":0.022221474783829864,"868":0.0020670293022915453,"869":-0.0012493402319715334,"870":-0.00005822421385837617,"871":-0.029060643233131074,"872":-0.008951718190192715,"873":0.00021125674487317602,"874":0.0005978117092283558,"875":-0.002139766702621829,"876":0.0011559307343287834,"877":-0.012362966897201599,"878":0.00466981352323329,"879":-0.004848437056311061,"880":0.011872201704228957,"881":0.016179633736100898,"882":-0.02228207441797596,"883":0.0028259599297751395,"884":0.009880996799594425,"885":0.026666298717898718,"886":-0.0044357820526219885,"887":0.001898940504874939,"888":0.014973471573616405,"889":-0.0005274662133766764,"890":-0.0009449718306671865,"891":-0.0004944809133704689,"892":-0.0539414548556378,"893":0.010945285073794565,"894":0.014907719081808164,"895":-0.0028704205247146674,"896":-0.0009247525813476263,"897":0.011573014920906944,"898":-0.0005136474701999815,"899":-0.001696640358237065,"900":-0.011435385260207438,"901":-0.014187079715418764,"902":0.0022296768731785337,"903":-0.004535809018141865,"904":-0.003957491856246991,"905":-0.011470137745397097,"906":0.01051918379376472,"907":0.008656174250169076,"908":0.00561395632468363,"909":0.00731351614501781,"910":0.005372627553976068,"911":-0.0024866626746792445,"912":-0.0170559398584281,"913":-0.005720172316539686,"914":0.00780562014357932,"915":-0.00458135341747959,"916":0.013235487226168517,"917":-0.004807711013493461,"918":0.010132564284734873,"919":-0.00009067933096650955,"920":0.00009976052763850004,"921":-0.014287517426727106,"922":-0.03304477274190368,"923":-0.005164121665138896,"924":0.0009016016386030958,"925":0.008534949814310341,"926":-0.009878619558248524,"927":0.04094488362315617,"928":0.0011668641448167416,"929":0.0028752686843497,"930":-0.005063544818340571,"931":0.004522100446362636,"932":0.0031338522076162904,"933":0.00031749739166279874,"934":-0.0011280226392747926,"935":-0.0056433166894676,"936":-0.007678789700473633,"937":-0.003655415746788666,"938":0.008484511140797213,"939":-0.0024031044408263174,"940":0.0032007574577478906,"941":-0.0045162894332636365,"942":-0.0006121621049651181,"943":-0.0014361647436500861,"944":0.012118386047439693,"945":0.00496895699631532,"946":0.01083823257228005,"947":0.00837343629015239,"948":-0.0017490759344373432,"949":-0.004104538154610765,"950":-0.00978729613947879,"951":0.006492570986132317,"952":-0.01780907384673988,"953":-0.0008341540504884288,"954":0.0006726834661466459,"955":-0.00248912082877599,"956":0.004465935557578181,"957":0.0019498921068145413,"958":0.010430713993345948,"959":-0.010206524015209861,"960":0.0029027499221973892,"961":-0.0005969793587809404,"962":-0.007442186858935529,"963":0.0016164993065713989,"964":0.0036657930604113344,"965":0.008873623436379617,"966":0.003776213270108481,"967":0.010334891361143425,"968":0.0005382894165013293,"969":-0.0023866571827640226,"970":0.004007357976973131,"971":0.009677757165871543,"972":-0.002096640890967806,"973":-0.005483959697009464,"974":0.011799386787708045,"975":-0.0020838879205850244,"976":0.0046534596260697295,"977":-0.006582671643202486,"978":0.0013123246412605767,"979":0.0017743650637638535,"980":-0.000591628634038879,"981":-0.0036262418377786577,"982":0.01711379427834886,"983":-0.0019632335139998856,"984":0.023526015050008987,"985":-0.0016628056941742845,"986":0.002059212389411824,"987":-0.022833985167462316,"988":-0.0012788565535915746,"989":0.0015016332657464275,"990":-0.013065796448872749,"991":-0.006001277825971693,"992":0.009139896382153592,"993":-0.001139028540952299,"994":-0.0011300330764884353,"995":0.0004911116644093981,"996":-0.005491864542186464,"997":0.00030438178955155987,"998":0.014934989896410048,"999":-0.004067120918057998,"1000":0.008618873578093324,"1001":-0.0007818553602104316,"1002":0.00994155196290363,"1003":0.001736265014122372,"1004":0.02290990353505434,"1005":0.0034070031786300027,"1006":-0.005989630055595527,"1007":-0.010540595558210207,"1008":-0.0005580008337440087,"1009":0.001842172230604763,"1010":-0.0030301128133934253,"1011":-0.008385637053917455,"1012":-0.006982748800881633,"1013":0.003772026897392571,"1014":-0.014334105448927425,"1015":-0.002022097463716819,"1016":0.0026873244297811127,"1017":0.007550142672852273,"1018":0.001953585390841028,"1019":-0.0023269842618878133,"1020":-0.008010283130978678,"1021":0.0004351624336596595,"1022":-0.014798391262812526,"1023":0.0017029207893828643,"1024":-0.011289477974841422,"1025":-0.003125372821654919,"1026":-0.009513304214726542,"1027":0.020644014024341194,"1028":0.0010668576154731042,"1029":-0.0021800476481551485,"1030":0.0015303907212374194,"1031":-0.00315732364100675,"1032":0.012600634632999083,"1033":0.002559112515066383,"1034":0.0016395178319937684,"1035":-0.0016332218811533203,"1036":0.0013635368502676066,"1037":0.003845729644150199,"1038":0.0034061794158052492,"1039":0.00005333855753693301,"1040":-0.013179763521538823,"1041":0.006554374042217097,"1042":0.011250549964814983,"1043":0.003525551394947532,"1044":-0.0071099164904572815,"1045":-0.006320925536713568,"1046":-0.001786073032139958,"1047":-0.010075847672242367,"1048":0.0021478243025597754,"1049":-0.010736205906048886,"1050":-0.003450081068828526,"1051":-0.008121111156312786,"1052":-0.029286106912079123,"1053":0.0021920044915897025,"1054":0.011441878748777815,"1055":0.0018613994767568284,"1056":-0.003323638413168502,"1057":0.004288617078261345,"1058":-0.016971156755257313,"1059":-0.009150268411591868,"1060":-0.01599153280403586,"1061":0.008842131553554825,"1062":-0.03671639765984382,"1063":0.003213736480398144,"1064":0.00509365056596276,"1065":-0.0017357456795590784,"1066":-0.027634198433124823,"1067":0.04822256023865817,"1068":0.00909855740120303,"1069":0.012828774256499708,"1070":0.002798840905106671,"1071":-0.02142455499802216,"1072":-0.004660561311859051,"1073":-0.0008392752175830299,"1074":-0.02068287444085533,"1075":-0.0062206023074370875,"1076":-0.0059239150680209015,"1077":-0.003649451711191547,"1078":0.0005743310538144659,"1079":0.00618661266983345,"1080":-0.02065076333258855,"1081":-0.017671408348308257,"1082":-0.007848367433622029,"1083":0.0011615535941624541,"1084":-0.01617053580460419,"1085":0.019941480286659354,"1086":-0.018655472826132728,"1087":0.019661850747115336,"1088":0.005290150966751819,"1089":-0.010695673493985017,"1090":-0.011777829272431336,"1091":0.01618844103046145,"1092":-0.006655920243225798,"1093":0.005511723784362529,"1094":-0.009348150843544997,"1095":-0.0038479961784563792,"1096":-0.002361898060888351,"1097":-0.009021644070382057,"1098":0.024964185162319675,"1099":0.003441510497812338,"1100":0.007166023699760682,"1101":0.005196031516687479,"1102":-0.008221785644393471,"1103":0.0017935559281366147,"1104":-0.0020023863428241698,"1105":-0.011683451382619106,"1106":-0.015410988557491926,"1107":0.0065689545327518705,"1108":-0.0019055179850326594,"1109":0.0007537711818305426,"1110":-0.0015226159754424267,"1111":-0.002282582792274154,"1112":0.006405415732029723,"1113":-0.003994400475747752,"1114":0.010404284035362083,"1115":-0.0024927258083026066,"1116":-0.002168602929178469,"1117":-0.009357871580229292,"1118":0.0024423076745264537,"1119":-0.0022944670226682355,"1120":-0.0051680942031206,"1121":0.006040997142249127,"1122":0.011047203678010068,"1123":-0.0012424125998987325,"1124":0.01892187476073346,"1125":0.0009946196876010483,"1126":0.0039043822215982537,"1127":-0.003203561416581272,"1128":0.008812701981005313,"1129":-0.003467679075234681,"1130":-0.008442807601650245,"1131":-0.01754055360640272,"1132":-0.0472063847466114,"1133":0.003085429163554608,"1134":-0.006276530723195879,"1135":-0.0049637352471149305,"1136":0.001363901341254818,"1137":-0.005279771895411325,"1138":-0.006130998945029503,"1139":-0.002687858899212499,"1140":-0.011643508783430607,"1141":0.0016877590195410886,"1142":0.0042958020006723715,"1143":-0.008564752738457072,"1144":-0.024254230684184717,"1145":-0.009956411504726474,"1146":-0.017842445810027547,"1147":-0.010513157989009312,"1148":-0.0017336573335129475,"1149":0.006367013180192946,"1150":-0.0009199152946112169,"1151":0.0036097777498914096,"1152":0.010730389675932213,"1153":0.0041615824955605904,"1154":-0.019480741167977367,"1155":0.0019584345751078942,"1156":-0.004185698478773509,"1157":-0.004924412899266611,"1158":-0.000511017333048424,"1159":0.008588694193944115,"1160":-0.0005898068193292628,"1161":-0.005688026472010925,"1162":0.0026460262143271616,"1163":0.007048268983166349,"1164":0.008503907535785848,"1165":0.004408569142095164,"1166":-0.005315996780178859,"1167":0.0039885575302214555,"1168":0.0005366838819683686,"1169":0.000953374627272446,"1170":0.0017283326019628454,"1171":-0.007969515266706091,"1172":-0.021403525929188587,"1173":-0.006948214147372674,"1174":0.015906940683386217,"1175":-0.0015288163266926609,"1176":0.0005325631179239193,"1177":-0.006336413496426277,"1178":0.0008028728822839581,"1179":-0.003918076661977116,"1180":0.01476334088654802,"1181":0.0047992392185853975,"1182":0.00833503116916967,"1183":0.0002491323788341792,"1184":0.002888701439373866,"1185":-0.0061055612742593746,"1186":-0.007587474858440041,"1187":-0.01410201198827813,"1188":-0.002592323833012954,"1189":-0.0004009412590181455,"1190":-0.0070950283335486,"1191":0.0025315722030123016,"1192":-0.0015255729672944106,"1193":-0.0014302248871417402,"1194":0.004206879853760463,"1195":-0.0034995309502364874,"1196":0.0035027610917075574,"1197":0.005688233521348187,"1198":0.0016285250398118433,"1199":-0.0028794011027657436,"1200":-0.0027345397187689656,"1201":0.007714062984655579,"1202":0.0025287528334727257,"1203":-0.002775765132686342,"1204":-0.02655040731243783,"1205":-0.01746164575039884,"1206":-0.0034232781547971327,"1207":-0.013033480090244121,"1208":-0.003364811405491634,"1209":0.0031257220098807846,"1210":-0.0037308902457452342,"1211":0.003937754344642469,"1212":0.022494329093936147,"1213":-0.005156974949412154,"1214":-0.0013285664494535135,"1215":-0.001448667427616857,"1216":0.00011029929016936348,"1217":0.0034538590177442875,"1218":-0.002106176325473358,"1219":-0.0034929073289462907,"1220":-0.002713607125874285,"1221":0.0034870024284310336,"1222":0.0044462058140797185,"1223":-0.0011116422355921395,"1224":0.003219294501498326,"1225":-0.0036420321818429182,"1226":-0.0022255823348396827,"1227":0.0024091506911537337,"1228":0.0078037773541685335,"1229":-0.004590533432003908,"1230":0.0018973222505787278,"1231":-0.008892139592524637,"1232":-0.01309794988585049,"1233":0.004081136611287004,"1234":0.002977894472130079,"1235":0.004237243982397538,"1236":-0.0033832452561017067,"1237":-0.0037869558378396838,"1238":-0.02186296799819562,"1239":0.007956072998542334,"1240":0.020179864125871635,"1241":-0.0038833891189110487,"1242":0.003142326054994816,"1243":0.002724272809353714,"1244":0.0018153113757226726,"1245":0.003601637854266365,"1246":-0.014271897429796706,"1247":-0.003732930215675367,"1248":0.0003051754843398383,"1249":0.001353457874968788,"1250":-0.017637876000210998,"1251":-0.001302435211237852,"1252":-0.02675337687729003,"1253":-0.005723758133414326,"1254":-0.001225937635883846,"1255":0.0043313712340026225,"1256":0.0039082950404535155,"1257":0.012649436275009248,"1258":-0.01302243682911289,"1259":-0.01721557354782976,"1260":-0.00566700527896014,"1261":-0.0044361927418223885,"1262":0.005835003815545788,"1263":-0.0014068340255017125,"1264":0.00896851362055635,"1265":0.007612960650036565,"1266":-0.013143140725400477,"1267":-0.006227902717115386,"1268":-0.0022154400029036386,"1269":-0.002917735729322934,"1270":0.0021795350330504697,"1271":0.0017344602290034759,"1272":-0.0032618132009353848,"1273":0.012636039656362247,"1274":0.018928178853460938,"1275":-0.003051767739091001,"1276":-0.006222013278222703,"1277":-0.01046371225533375,"1278":0.00821349151031615,"1279":0.0030984212237520218,"1280":0.0009133401730955422,"1281":-0.010984506608184456,"1282":-0.02889704252620365,"1283":0.0074087760573272165,"1284":0.0054364179688294895,"1285":-0.00036292862118965114,"1286":-0.005474682058875135,"1287":0.04066128270381613,"1288":0.00016147829051398705,"1289":-0.004288940288434235,"1290":-0.012339569140833371,"1291":-0.004017725785496372,"1292":-0.0129448046769055,"1293":0.000058565679591472173,"1294":0.0002400095915578414,"1295":0.001981221177381326,"1296":-0.002067945888645891,"1297":0.008414387189559107,"1298":0.004090150878484472,"1299":0.0018757057248953042,"1300":-0.011506729416656616,"1301":0.005793454898118013,"1302":0.008063332409173948,"1303":-0.0032016447420528133,"1304":-0.05376622254391561,"1305":-0.0038486399273924116,"1306":-0.002871101894409761,"1307":-0.009348285234041414,"1308":-0.0006342362346120959,"1309":0.004831780001642311,"1310":0.0070217938290404085,"1311":-0.014361079009116602,"1312":-0.014152344241182158,"1313":0.002261050921958045,"1314":-0.011827806184817715,"1315":-0.004159660892173847,"1316":-0.0023564022089755834,"1317":-0.0019639692851167504,"1318":-0.007968317723950779,"1319":0.0031126847650099184,"1320":0.007467635950583914,"1321":-0.01472581059635897,"1322":0.013550860269312516,"1323":0.008764555200160734,"1324":0.002376622688708587,"1325":0.0011289527576132203,"1326":-0.008702533526827046,"1327":-0.015334055814017325,"1328":0.005803797103449248,"1329":-0.010406598514689723,"1330":0.0033415212143526594,"1331":0.004318132473828458,"1332":-0.003429347858739963,"1333":-0.002011270344554368,"1334":0.02886767612833885,"1335":0.0003500626665685852,"1336":-0.0001417809494472308,"1337":-0.0004906684947927053,"1338":0.004999462919591669,"1339":-0.0020443193720455005,"1340":0.0072901186402920615,"1341":-0.000012753160065300591,"1342":-0.002384164201790231,"1343":0.006492942791580047,"1344":0.005365975995896976,"1345":0.00999384733444633,"1346":-0.002978218176511951,"1347":0.009498559038348205,"1348":0.0001329740012267405,"1349":0.0014353173028157473,"1350":-0.007247888541316357,"1351":-0.020220693807708825,"1352":-0.023082134362098456,"1353":-0.005468763132818591,"1354":-0.01751247061707127,"1355":-0.0062287533556092695,"1356":-0.000047369320118884444,"1357":-0.0025672240846370386,"1358":0.005115768677854185,"1359":-0.00439721818319262,"1360":-0.02060063740043935,"1361":-0.005522207687802521,"1362":-0.007899562570847635,"1363":0.005614191772493099,"1364":0.0008111639261587827,"1365":-0.007147518802087011,"1366":-0.008241822888704554,"1367":0.011358970745594573,"1368":-0.001566210966779443,"1369":-0.0013879796908034788,"1370":-0.00032578979473382817,"1371":0.007150335573271687,"1372":0.009559546294931406,"1373":-0.0005163289334565787,"1374":-0.010551899015561852,"1375":0.0007073740319351208,"1376":0.0026774000418919573,"1377":0.008225092663930861,"1378":0.014627230022712658,"1379":0.0026639478571746427,"1380":-0.0010452419348335152,"1381":0.00036755989038047865,"1382":0.034316941262537363,"1383":0.0012691123080806443,"1384":-0.020421837841122302,"1385":-0.002384504712840116,"1386":-0.0016350232629406367,"1387":-0.03882360685881495,"1388":0.0007092730917676952,"1389":-0.004866282439316571,"1390":-0.004119844573220379,"1391":-0.0008977937037479266,"1392":-0.0034261980717271868,"1393":0.00025946610920098763,"1394":0.0028193174797931622,"1395":-0.0031290253999003907,"1396":0.0021906157141316045,"1397":-0.0013297882738839716,"1398":0.016134697272225558,"1399":0.003926902455321041,"1400":0.005215360412577385,"1401":-0.010446998835022508,"1402":-0.0028687552545323155,"1403":0.002415967768586837,"1404":-0.0025062294943429047,"1405":0.003444544853140802,"1406":-0.02296740300620343,"1407":0.007835332992480192,"1408":-0.003915598297308645,"1409":-0.003064692241456292,"1410":-0.0011535184684470531,"1411":0.0030673093420522444,"1412":-0.0034211694705021446,"1413":0.010900651373038365,"1414":-0.0001166736494001375,"1415":0.0005792432633772443,"1416":-0.005253249545587429,"1417":0.010510203089052437,"1418":-0.006236532770418779,"1419":-0.003431995450861183,"1420":-0.03306043872333805,"1421":0.020979859945046576,"1422":0.01079769914395852,"1423":-0.0012915765066885778,"1424":0.019059239888550638,"1425":0.029018997736001206,"1426":-0.010320369618790572,"1427":-0.006220008643890455,"1428":0.0033874956506571023,"1429":0.0052905882438565475,"1430":-0.0022015920825424703,"1431":0.008798067522743492,"1432":-0.02738635265698225,"1433":-0.003232865837814137,"1434":0.01628647408057996,"1435":-0.005402522279243403,"1436":-0.010776464798329461,"1437":-0.00689238314825068,"1438":0.0011138155191419109,"1439":0.0001725768942898615,"1440":0.016793191813884098,"1441":0.027609259177206143,"1442":0.007206384583690076,"1443":0.018032588098929977,"1444":0.008752719417694637,"1445":0.03218512952168718,"1446":-0.007131664634020655,"1447":-0.02590425112751028,"1448":0.0011363147897110642,"1449":0.001508542592559016,"1450":0.001500584211136931,"1451":0.026124443362705786,"1452":-0.01099136377033037,"1453":0.006523539236519909,"1454":-0.007824827006541035,"1455":0.00028205611920200724,"1456":0.004218752757779026,"1457":-0.015898881947769047,"1458":0.014693119455565113,"1459":-0.02814751880685806,"1460":0.02965231876166371,"1461":-0.011868325393213055,"1462":-0.017885836984988187,"1463":0.016562766893184387,"1464":0.001882295014275,"1465":0.0040588148819960855,"1466":-0.023047668740882665,"1467":0.011696516385635649,"1468":-0.0020630625154233707,"1469":-0.0020281443133158767,"1470":0.00867150022832209,"1471":-0.00741397364115119,"1472":-0.017239962839831247,"1473":-0.007296418366736077,"1474":0.011534331656223386,"1475":-0.010778633383080678,"1476":0.007042273182535437,"1477":0.002310425560631748,"1478":0.0020827442470527672,"1479":-0.006230963051695779,"1480":0.009297327971870738,"1481":0.00859015248450457,"1482":0.004778774705493241,"1483":0.008119034033455373,"1484":0.008518521587389085,"1485":0.008924566795253538,"1486":-0.005232697998881027,"1487":-0.01941784304744018,"1488":-0.009216569679710929,"1489":-0.013355981272672625,"1490":0.00001040495052645604,"1491":0.026649986338015946,"1492":0.031330911359037844,"1493":0.0035649202885861624,"1494":-0.002298243265585368,"1495":-0.013495942062232251,"1496":-0.00961410418584515,"1497":0.0005650144453869445,"1498":0.01699589658154006,"1499":-0.015219276588536102,"1500":-0.00039913985459717885,"1501":0.01440671812745006,"1502":-0.01869282976341945,"1503":0.0014990626411135652,"1504":0.02141956964254086,"1505":-0.020460659441777454,"1506":0.0074045785662276995,"1507":0.014944747117518916,"1508":0.014760316203803511,"1509":0.004805474320862427,"1510":0.0076321986229729855,"1511":-0.014259982040830222,"1512":-0.014249674424227796,"1513":-0.006429638247985992,"1514":-0.0021368048823163567,"1515":0.005386087018630597,"1516":0.006617871046196994,"1517":-0.0033426180717661103,"1518":-0.01682216075443091,"1519":-0.008239288519663983,"1520":0.023571681363983767,"1521":0.0050338980705899265,"1522":-0.013997688411593007,"1523":0.008668876351203903,"1524":-0.0033018473646883794,"1525":-0.014699532340677831,"1526":-0.00566474003533831,"1527":0.00734290738235688,"1528":-0.004403471334296771,"1529":-0.0015810936408084582,"1530":-0.01000822722832835,"1531":0.0063809914330154064,"1532":-0.0016417786769724865,"1533":-0.0092391857277921,"1534":-0.0012760491922072252,"1535":-0.005093040693320064,"1536":0.0005967889283215007,"1537":0.006366617366433784,"1538":0.016872023229796404,"1539":0.0028796304508190433,"1540":-0.027062770030988396,"1541":0.021246147227728395,"1542":-0.0048561356146759604,"1543":-0.0063749136802215296,"1544":-0.01824630597630343,"1545":-0.005540572080132599,"1546":0.00015074541316497143,"1547":0.010118561985219317,"1548":0.0022241914216973822,"1549":0.0034277127899902185,"1550":0.009531590706585413,"1551":0.007345758706898425,"1552":-0.010337266318249447,"1553":-0.007073117005217325,"1554":-0.003449189444858931,"1555":-0.0008341703793086587,"1556":-0.001062837926676555,"1557":-0.004292680470440652,"1558":-0.014288705586657654,"1559":0.009844312258924619,"1560":-0.006573331410029787,"1561":-0.010870702807725176,"1562":-0.0012574689181654266,"1563":-0.0015072896003685051,"1564":0.006774457372410928,"1565":0.03731175742834518,"1566":0.013519124809115626,"1567":0.006511960803049491,"1568":-0.006333491566752144,"1569":0.0008746474193521855,"1570":-0.006304177039900162,"1571":-0.01172564554018816,"1572":0.021641601892644604,"1573":-0.0012601921046457591,"1574":-0.0021997096335605202,"1575":0.0030527455900691888,"1576":-0.007841098954191892,"1577":0.0016330076008695003,"1578":-0.0006163744997571542,"1579":-0.005936232258529623,"1580":-0.038940543604564455,"1581":0.0036080226418832365,"1582":0.002051447902775003,"1583":0.00493080980815904,"1584":0.0004919820483431018,"1585":-0.02302383490275116,"1586":-0.008220291409183436,"1587":-0.006303238102612751,"1588":0.00810300920310732,"1589":-0.0021277337294925767,"1590":0.016663613647256,"1591":-0.0057526924801146115,"1592":-0.01841322408931492,"1593":0.005433985490029965,"1594":0.00006393627123082956,"1595":0.006377304652940529,"1596":0.005044214905001122,"1597":0.00035668829162802183,"1598":-0.013590244225667618,"1599":-0.012611660193902365,"1600":0.00908250606324527,"1601":-0.02065679296613252,"1602":-0.03492873553256476,"1603":0.00852771536322246,"1604":0.012072301473293818,"1605":-0.010223671697639181,"1606":-0.025002357887719793,"1607":0.017548945197751582,"1608":-0.01115951695546261,"1609":-0.01593702350386138,"1610":-0.007027618558400777,"1611":-0.029132491402445167,"1612":-0.006066641039001655,"1613":0.0024138424850088406,"1614":-0.004824517330275357,"1615":0.008770663633483422,"1616":0.02677811943520547,"1617":0.02920264910345601,"1618":0.003681548453828668,"1619":-0.020307763904623927}},{"sx":1,"sy":1,"depth":1620,"w":{"0":-0.04059193244597646,"1":-0.0687554695216933,"2":-0.054706925036484146,"3":0.09551044992252719,"4":0.10498672268663094,"5":0.09304042155948519,"6":0.10312959742612475,"7":-0.07856302426825346,"8":0.0203859445957022,"9":0.07834620164301569,"10":-0.08483895471065497,"11":-0.22265452806462044,"12":0.3543663215730368,"13":0.07889560062732695,"14":0.06679270688802477,"15":-0.26464216088393194,"16":-0.10503693305610985,"17":-0.1274777867615201,"18":0.038459546095069484,"19":-0.004080315663575649,"20":-0.20724240381868272,"21":0.06657141558173871,"22":0.3092591041777245,"23":-0.2300576017498462,"24":-0.03580034561668145,"25":0.16208777378679076,"26":-0.011037693365641338,"27":0.20357499257582598,"28":0.292468071146787,"29":-0.08462771724630788,"30":0.09956391909278417,"31":-0.047847483846748966,"32":0.27399914702110695,"33":0.506028066074459,"34":0.2972269318749783,"35":0.28009771832081676,"36":-0.1305717953932321,"37":-0.08951607441995774,"38":0.11660386802298663,"39":0.6576274514515144,"40":-0.0644848030661472,"41":-0.09103037071630639,"42":-0.019258534081306424,"43":-0.07759066634981708,"44":-0.02603861796281279,"45":0.05566036385866371,"46":0.04124263698624124,"47":-0.0022149465380454894,"48":-0.09075896119145488,"49":0.012663791329048494,"50":-0.016174087974322213,"51":-0.029661377014783087,"52":0.18383018838035184,"53":0.0006960762622258275,"54":0.056383408407540025,"55":-0.03072457987790127,"56":0.01943105816618093,"57":-0.016221200371241494,"58":0.020000355896306016,"59":-0.10461058959844378,"60":-0.00965986316029094,"61":-0.0022373509399295356,"62":-0.0027480602138618454,"63":-0.015994932390254905,"64":0.11131469946866862,"65":0.042871836752277764,"66":0.014531002728338639,"67":-0.0609723549974848,"68":-0.009284265961256548,"69":-0.02374557494860972,"70":0.0060264595148202885,"71":-0.01638561302597175,"72":0.0964204821842141,"73":0.006448611060772126,"74":0.069777676166683,"75":0.04706505601416943,"76":-0.021532203057097358,"77":-0.036195834302952375,"78":-0.06337423099935142,"79":-0.02049860955382914,"80":-0.02455292504271329,"81":-0.022373318475409694,"82":0.008993542168548651,"83":0.006740341377729531,"84":-0.025956480751032383,"85":-0.03179596214373503,"86":0.004100126841626557,"87":0.013766823854083073,"88":0.009462855329548806,"89":0.005398689715440149,"90":-0.021198905262003576,"91":-0.025772035841269685,"92":-0.08004360307269384,"93":0.029885415798454402,"94":-0.004308451911776793,"95":0.004537633664565438,"96":-0.0012479135283018697,"97":-0.01848765590194484,"98":-0.003518069984896279,"99":0.004337502600312437,"100":-0.005201583770032441,"101":-0.005792991904172613,"102":-0.0017321708381474001,"103":0.006987013531705041,"104":0.005514419483296595,"105":-0.010300127820199732,"106":-0.0083321128381315,"107":-0.018036289607449157,"108":0.023410974821175434,"109":-0.0054343684677800414,"110":0.037158261596752576,"111":-0.023873473248206316,"112":-0.005874527176902695,"113":-0.012411097906563315,"114":0.014757838314509789,"115":0.03685493752248705,"116":0.005263381192074371,"117":0.00869431006554302,"118":-0.036469780712932574,"119":0.01317655445297685,"120":-0.005486144734063854,"121":-0.013320044952676078,"122":0.01019132967523109,"123":-0.007494598709177656,"124":-0.009232717203118622,"125":0.016718989820522383,"126":-0.0011506316999986847,"127":-0.013845568187068474,"128":0.015361615477815591,"129":0.0015128355335253098,"130":-0.0019734918614000966,"131":0.02193074845017204,"132":-0.006608843591259536,"133":-0.01903182015275642,"134":-0.03721822527070935,"135":0.0019843042177258466,"136":-0.006435500131554111,"137":0.0004327088520807691,"138":-0.0281627124011252,"139":-0.0130785254423934,"140":-0.004293571835189768,"141":0.011811041908497896,"142":0.015930578541181715,"143":0.01240022079918494,"144":-0.01511594964559943,"145":0.0008486251110958434,"146":-0.030224292356815535,"147":0.0053864148848770605,"148":0.009245938100764838,"149":-0.010384052628713154,"150":0.011503541725569182,"151":-0.03653314436142951,"152":-0.026387261263054386,"153":-0.00524861434024038,"154":-0.02556136870455366,"155":-0.003242094793358147,"156":-0.003297084961486975,"157":0.000508466531117597,"158":-0.03021999053933523,"159":-0.02734296338210858,"160":0.02338915231574779,"161":-0.011820499476122816,"162":-0.02387640544664275,"163":-0.013141854644758715,"164":-0.0066947897483211624,"165":0.011650138244158063,"166":-0.011905859926769716,"167":0.014381235266478965,"168":-0.013117320841167303,"169":-0.023970006007370058,"170":0.009747301793098264,"171":-0.016392534916241288,"172":0.008949747445197045,"173":-0.03274593275915509,"174":-0.05581172210302681,"175":-0.008052692463834811,"176":0.01903526048224948,"177":-0.014120341125168717,"178":-0.02716355040324343,"179":-0.0193735721797165,"180":0.05719343536687985,"181":0.02870963810884952,"182":-0.04885443237794874,"183":-0.08760178350474665,"184":-0.01587006312545121,"185":-0.009967513728988096,"186":0.0031858780568680845,"187":-0.08831488820714796,"188":-0.020122069230641342,"189":0.13265758595229887,"190":-0.02814470227416184,"191":0.16023471122229804,"192":0.13929636288983044,"193":0.08577691762371485,"194":-0.04204510552123088,"195":0.08516615933266078,"196":-0.027040701282922335,"197":0.05406566450093672,"198":0.10789624578827546,"199":0.027738331725285382,"200":0.022977832268005885,"201":-0.10145269955123379,"202":-0.012597978671305653,"203":0.09018458724978375,"204":-0.0653157981011356,"205":-0.01250820791044676,"206":-0.009254674979491624,"207":-0.03666682921995776,"208":-0.023181604012030756,"209":0.08952312160392295,"210":-0.11739355246687433,"211":0.054142068687281,"212":0.15938761541136287,"213":0.005326836862276729,"214":-0.7121842479401171,"215":0.05163260486954422,"216":0.0940745403666862,"217":0.049276913086510665,"218":-0.1533085547573911,"219":-0.044307738426560356,"220":-0.03650934722876455,"221":0.004163663517226719,"222":0.0023629857717956254,"223":0.0018660379052677027,"224":0.012882492996590274,"225":0.012143273985870971,"226":0.033629764997071404,"227":-0.012713057366386596,"228":-0.014945311815409246,"229":0.033634019654464005,"230":-0.02947050304695277,"231":-0.0877946297092232,"232":0.11343746886601173,"233":0.021549557665337317,"234":0.046183281725039736,"235":0.005919950729700214,"236":-0.025876511603789388,"237":0.015986126980325234,"238":-0.04924653654536255,"239":-0.005292001255221207,"240":0.003502088096635134,"241":-0.01153279412908705,"242":0.0012869006794741379,"243":-0.027192206532730256,"244":0.013096739629555456,"245":-0.00811935663393965,"246":-0.08112354766613557,"247":-0.013998147666791015,"248":-0.004862951635736074,"249":0.0321365064182101,"250":0.02012524257032118,"251":0.038983117422275664,"252":0.0556925579682865,"253":0.036392414314149975,"254":0.08557555626847033,"255":0.004086665059677607,"256":-0.02648958081958944,"257":-0.02150585278876002,"258":-0.0063156544463848835,"259":0.011965197443813209,"260":-0.02444042142100063,"261":0.002748982670196525,"262":-0.006321823097571619,"263":-0.011879240532776133,"264":-0.03641501100107297,"265":-0.011929916517571993,"266":-0.00033488268707896956,"267":0.012128409941406262,"268":0.007724517837178284,"269":0.0019446104042323748,"270":-0.0030501788410534584,"271":-0.008760355410202198,"272":-0.04503631652492895,"273":0.0028471868058421307,"274":-0.04185180340671654,"275":0.007766043216952089,"276":-0.005154806600041855,"277":0.006220215308406651,"278":-0.016919235665039827,"279":0.005085724714559954,"280":0.021236515096504132,"281":0.0020198358890163404,"282":0.006129577690481143,"283":0.00019907225162544873,"284":-0.026942368191338745,"285":0.005107781097424271,"286":0.0006031328391383853,"287":-0.012737839518615046,"288":0.0056626481899297075,"289":-0.005614513642846526,"290":0.01488660116959454,"291":-0.00865318458931168,"292":-0.03737342029059399,"293":-0.018299185064348276,"294":0.03520512470204241,"295":-0.008063167956669245,"296":-0.0009294697612958758,"297":-0.01847206521040919,"298":0.021991580400666417,"299":-0.009008528644166994,"300":-0.0015567307002875466,"301":0.008451389378241027,"302":0.02245454833007732,"303":0.0008761584983527337,"304":-0.006224111755909736,"305":-0.011229077199502474,"306":-0.023692861466224086,"307":-0.031024446537548933,"308":-0.00187666221928728,"309":0.009587574516296741,"310":-0.0029560577968305818,"311":0.011657904940134045,"312":-0.005891360070508935,"313":0.008106233424831466,"314":-0.00930705256985203,"315":-0.00534501747594794,"316":0.004211397505075527,"317":0.007115250081000608,"318":0.0003346696012711194,"319":0.003934908513286573,"320":-0.0009094767311987936,"321":0.006580288344306188,"322":-0.008625080474039544,"323":-0.007708107727253557,"324":-0.030147705850298072,"325":-0.006974341760063899,"326":0.0052003224846176865,"327":-0.011008792868916054,"328":-0.007822579535377879,"329":0.002779442129081527,"330":-0.027156693739257002,"331":0.006758127076397107,"332":0.04379557493372835,"333":-0.01315336051982242,"334":0.013480959907675508,"335":0.0056620068436164,"336":-0.004151245727632639,"337":0.014893965714751094,"338":-0.030835577305358748,"339":-0.00966228188532525,"340":-0.0003318704254717196,"341":0.01950143978407271,"342":0.014380432369484199,"343":-0.020819675960277992,"344":-0.050512778800638126,"345":-0.008682080849340508,"346":0.0034299743012011445,"347":0.005118880469019634,"348":0.00043957276771592935,"349":-0.0013615001549281806,"350":0.012295426727157418,"351":-0.008152968064006954,"352":-0.019074327998256462,"353":-0.0037373376554535793,"354":0.020861220929536066,"355":0.009367906622178394,"356":-0.009293481537009514,"357":0.0017838604983001023,"358":-0.007252318628942931,"359":-0.01222901433025556,"360":-0.004523747295397318,"361":-0.00769013019972306,"362":0.018681993527308365,"363":-0.028330597650697828,"364":-0.01687265530248789,"365":0.04022741193561225,"366":0.05404306287029111,"367":-0.05422150884547791,"368":0.008450299100654075,"369":-0.04263727607014871,"370":-0.011311817709582764,"371":-0.032317501887100225,"372":0.08214088577303907,"373":0.029600949470149893,"374":0.052494922731543936,"375":0.0400802917327969,"376":-0.044409814748976865,"377":-0.032393177611902996,"378":-0.010670487601256155,"379":0.0001985775996001796,"380":-0.010057529167730216,"381":-0.03361067601028149,"382":-0.04449267920294932,"383":-0.03529128335061543,"384":0.0264906213693705,"385":0.04578599605453697,"386":0.019448436989962722,"387":0.02864763895691176,"388":0.05678542225787422,"389":-0.0077522992554201545,"390":-0.03338849081642471,"391":-0.02635515958213796,"392":0.0243464193991458,"393":-0.0025632199086477584,"394":-0.005299751354858352,"395":0.024312752879380773,"396":-0.08526800964003871,"397":0.01305211864694096,"398":0.08135757806031498,"399":-0.0012944752821928741,"400":0.006247469927289414,"401":-0.014461337054316825,"402":0.00461949579178578,"403":-0.004332695465420809,"404":-0.004980977608343106,"405":0.03188403570730116,"406":-0.004032825054056189,"407":0.008932512996258355,"408":0.003651470624982127,"409":0.008503271364264653,"410":0.019215379130117456,"411":-0.011476677667627328,"412":0.08114953102891219,"413":-0.0066470311010626395,"414":0.02979008606998902,"415":0.023409480123168337,"416":-0.01236454742165412,"417":0.001986078628076811,"418":-0.015751058134429813,"419":-0.007827905595101978,"420":0.014178402271835786,"421":0.004310024322119869,"422":-0.0318225160788994,"423":-0.024113944842675157,"424":-0.023843899694366354,"425":0.0141019412784464,"426":-0.034007308638021295,"427":0.02509540634911534,"428":-0.004217497177839307,"429":0.01008409737593833,"430":-0.004442599678994444,"431":0.020200995237770514,"432":0.005554441725695337,"433":0.0013238431379036279,"434":0.04479587157645431,"435":-0.013110461918256065,"436":0.009631290023775448,"437":-0.008355139309782492,"438":0.06964790136133542,"439":-0.002390861650464213,"440":0.0010769507817648327,"441":0.0039134367322138045,"442":-0.008284813404159649,"443":-0.0002057380256844014,"444":0.011124720081865226,"445":-0.012723493143425281,"446":0.004067600551889528,"447":0.018524499573030047,"448":-0.004800465686289131,"449":-0.006597455255375347,"450":-0.01163181509782182,"451":-0.004060959126301753,"452":-0.01072028022278158,"453":0.0070908461792451504,"454":-0.019393716929564455,"455":0.0014728719890568123,"456":0.0019924116007856755,"457":0.023706702853488484,"458":-0.0049350723425172285,"459":-0.005042244906343899,"460":-0.019762925458411306,"461":-0.00353567502482237,"462":-0.003898313269391913,"463":0.009760818252331264,"464":-0.0032122519713848317,"465":-0.012638056520619213,"466":-0.012403570857879293,"467":0.014358350538368085,"468":0.004249086224896806,"469":-0.02139726645405918,"470":-0.007114073890290705,"471":-0.010185243278441366,"472":0.017342325039243045,"473":0.004558764754972069,"474":-0.00836657548463332,"475":0.015904286047853825,"476":-0.0071833870545592125,"477":-0.017354903475354018,"478":-0.02108542871917168,"479":-0.005053543877045522,"480":-0.0033708044920578483,"481":0.0032415858692611717,"482":-0.00007789184491805801,"483":0.004513463554933098,"484":-0.008038373008350412,"485":-0.0042626447478092385,"486":-0.010431879476220996,"487":-0.0013944889583888918,"488":-0.00014208847183933175,"489":0.0017964206317000128,"490":-0.003169253305282678,"491":-0.027246190881029236,"492":-0.005180569469876406,"493":-0.007054939833812031,"494":-0.02005919407421979,"495":-0.006230821908771223,"496":-0.005112098705359087,"497":0.004126881897242258,"498":-0.0011086323295028658,"499":0.0011669994546938038,"500":0.0005808684662696966,"501":-0.00026107393510693667,"502":-0.012634408553033428,"503":0.004969480896938402,"504":0.019429904995322708,"505":-0.0054037008229257345,"506":-0.020644845077948285,"507":0.030514998387153706,"508":0.0003045915251115304,"509":-0.011027164367985334,"510":-0.006908122832872021,"511":-0.0032882280922459364,"512":0.011923966379285658,"513":0.019177488478311463,"514":-0.008454567469494002,"515":0.011990445100537485,"516":-0.004620026271284786,"517":-0.00009468152737312412,"518":-0.00926400638442609,"519":0.0027283728496886738,"520":-0.00380318431269674,"521":0.001630409260888399,"522":-0.005868157388423614,"523":0.003404109878587823,"524":0.007764976795592286,"525":-0.012194595227244252,"526":-0.01132250709857399,"527":0.006434445810039656,"528":-0.005201442434233264,"529":-0.0072007655598395936,"530":-0.013705130771880356,"531":0.003863191684059533,"532":-0.02038579571974282,"533":-0.01243229886325439,"534":0.01743547875677668,"535":0.011343539147202337,"536":0.0014294724675615006,"537":-0.021143985579813614,"538":-0.04511895715107235,"539":-0.0029030477724321566,"540":0.014340752554592889,"541":-0.009373798458429162,"542":0.012116102456952863,"543":-0.009971151968573112,"544":0.020069915751756418,"545":-0.007933683106726245,"546":-0.03923286981126117,"547":0.0023237781697542487,"548":0.01241311504369062,"549":0.029083886037357874,"550":-0.010807742323440808,"551":-0.0003640730866040249,"552":-0.0050076015049476015,"553":-0.028785674345323444,"554":-0.034876990123686474,"555":0.015356197496446225,"556":-0.008258410097289576,"557":-0.02381966544158804,"558":-0.016754095869496933,"559":-0.024506243817388307,"560":-0.024711250384572878,"561":0.006448063203019508,"562":0.03283519266003798,"563":-0.01446311038156751,"564":-0.0007405079512530021,"565":-0.015778921443250757,"566":-0.027921360138865682,"567":-0.022705264630867715,"568":-0.0014773230159430468,"569":0.013315059962149024,"570":0.0019521154376049073,"571":-0.024502720648062075,"572":-0.047772391704846796,"573":0.027265902453641924,"574":-0.04554439033878807,"575":0.003571053373617826,"576":0.0084684312524207,"577":-0.01312173804904016,"578":0.006887242214628544,"579":-0.019537000484966736,"580":0.0035622181085826453,"581":-0.0005052558211094535,"582":0.01929696481426113,"583":-0.0020287969557487846,"584":0.011263977116462221,"585":0.006563113348854619,"586":0.015888586842418905,"587":-0.023356365064251716,"588":-0.0020695476846149105,"589":-0.004529755315147218,"590":-0.009034184954284498,"591":-0.021298089030160536,"592":-0.0353660414184965,"593":-0.0033948339123703415,"594":-0.031206255399097837,"595":0.0035362731818206978,"596":0.01664509504194669,"597":-0.0013191771702919255,"598":0.024470166396170473,"599":0.0025173755419841157,"600":0.002706595282233845,"601":-0.009277312427075022,"602":0.012893745081955609,"603":-0.007848007192410246,"604":0.01202801085860587,"605":-0.002603983568253566,"606":-0.006091079383607953,"607":-0.004489116036466557,"608":0.0005098925639574765,"609":-0.005585643076789647,"610":-0.007949727323056831,"611":0.010249485670721016,"612":-0.019030030021633487,"613":-0.004871811791228008,"614":-0.02986136031288621,"615":0.0038952966213224617,"616":0.0043401844456537305,"617":-0.009714996960594127,"618":0.022376257273852833,"619":-0.00173953598034822,"620":-0.0011953775884543925,"621":-0.012253836141066588,"622":0.012869500795428583,"623":0.0029508334045499776,"624":-0.0010202081649663144,"625":-0.018404999387935383,"626":0.004301841923269606,"627":-0.02696687444632779,"628":-0.006445658750752621,"629":0.0031882076456666245,"630":0.009294246663579163,"631":-0.0020039783803144176,"632":0.023642689748884175,"633":-0.002971024532693866,"634":0.008371141108120907,"635":0.005533863880441888,"636":0.0033499749537066847,"637":0.007077258993481356,"638":-0.017681886541285337,"639":-0.0017315777265766365,"640":0.0036410764403613702,"641":-0.0017500582622991699,"642":0.007127750425870742,"643":0.013631304047673171,"644":-0.005936688852296001,"645":0.00941806035546649,"646":0.0003716601280188054,"647":-0.009273176362981297,"648":-0.0006702327831672558,"649":-0.00440704091846583,"650":0.0068412104799064595,"651":-0.015303070594574246,"652":0.005666421052615173,"653":0.001845460371880671,"654":-0.0003927712679447668,"655":-0.002529619750287254,"656":-0.002673156813754465,"657":0.004276391647355269,"658":-0.025801824463358033,"659":-0.003954600827368389,"660":-0.003119826088289368,"661":0.01351482660612076,"662":0.017119427330445563,"663":0.002340420848541792,"664":-0.012233168964973068,"665":-0.013077411784293504,"666":-0.00970734665632698,"667":-0.030534433096802226,"668":-0.006506741571637567,"669":-0.0018185798714364502,"670":-0.004646460096912091,"671":-0.0019127488896261491,"672":0.026838564332372798,"673":0.0019564322167886037,"674":0.0023158289337729563,"675":-0.0026361010017326584,"676":-0.00032921254716520285,"677":0.015918046242426175,"678":-0.0126231908648212,"679":0.0008599319930975038,"680":0.005951944649954647,"681":0.015374571804238228,"682":-0.022139481749123665,"683":0.0012863320948004982,"684":0.008974824234645953,"685":0.00512912425348179,"686":-0.011245529043797185,"687":0.02334094826502752,"688":-0.004142284708622822,"689":-0.0012683803897327324,"690":0.001311911214590843,"691":-0.035820613289528465,"692":-0.009048010492272213,"693":0.0004933942595339928,"694":-0.0027132531400787534,"695":-0.006080969106645121,"696":-0.004087222943087164,"697":-0.000254642542776013,"698":-0.02094971714800527,"699":0.004166931305435499,"700":-0.0012871163157530702,"701":0.004591810922743625,"702":-0.022459095195725448,"703":-0.0035925184256635477,"704":-0.017130963032483574,"705":-0.020987091267584974,"706":-0.0030173083533121237,"707":0.024758378827786517,"708":0.0005697524049772182,"709":0.0058306149827451565,"710":-0.012907304859838835,"711":-0.02407312044010629,"712":-0.01846964255265692,"713":0.010232196838889606,"714":0.035877078159112126,"715":0.005602352834656745,"716":-0.010133258395627417,"717":0.007638085919361706,"718":-0.01004487692821927,"719":0.0013927186162095361,"720":-0.0041936638417295865,"721":0.016170878695932825,"722":-0.02677834945050281,"723":-0.027048155091531738,"724":-0.006369876281356722,"725":0.01398612500530201,"726":-0.02000433463338857,"727":0.023543823543337807,"728":-0.007191014339322273,"729":-0.0077348221826549985,"730":0.0029320473036174633,"731":0.009461795555311878,"732":-0.008957045620014358,"733":0.037021594850525134,"734":0.0039329730435874,"735":-0.021225256796934933,"736":0.009654450979719342,"737":0.007974620952226983,"738":-0.014539156514943521,"739":-0.0011626814160392328,"740":0.01037759485254991,"741":-0.010198881175644596,"742":0.007519111063430322,"743":0.0036112264271297334,"744":-0.007295005758501933,"745":0.002325629549813196,"746":-0.005469872665108949,"747":-0.014832138126860198,"748":-0.0051599070882457545,"749":-0.01244558377879884,"750":0.005860190087450808,"751":-0.007168621853879738,"752":-0.0023095433660908445,"753":0.003814447536987999,"754":0.006063396595826645,"755":-0.006498700877442123,"756":0.004197629349960218,"757":0.005683654550584746,"758":-0.010603437801916651,"759":0.00630492019060649,"760":0.01946600114657679,"761":-0.0063682997839115945,"762":0.011217627129853688,"763":0.008712063824992717,"764":0.03545032582655444,"765":0.002912521319779557,"766":-0.004458374466406033,"767":-0.015076088267369255,"768":0.003923165234299739,"769":0.0051775120429234465,"770":-0.003366620213342479,"771":-0.024191645161067706,"772":-0.007159123778884945,"773":0.0036679421401331425,"774":0.002421226018503402,"775":-0.0012730433694274864,"776":-0.007725265445697163,"777":0.002322592634198352,"778":-0.0023827227570368094,"779":0.005262734782327326,"780":0.0003248598617985746,"781":-0.0049741386425075735,"782":-0.011430901588014094,"783":-0.0022408379649926364,"784":-0.006803417643358413,"785":0.0037473035686876647,"786":0.0056986626152176496,"787":0.01121537129873477,"788":0.0016064910261534904,"789":0.0031814857493136957,"790":0.007945361250317485,"791":-0.024820017484460267,"792":0.013278161495557883,"793":-0.006132160171879776,"794":0.0004683413549985992,"795":-0.00012320325428265616,"796":-0.009829572992554894,"797":0.0023656479714248687,"798":0.005386985462742521,"799":-0.006735965990784772,"800":0.011444105083239191,"801":0.012951091638425052,"802":0.017614487500606374,"803":-0.004868450488401176,"804":-0.002793060832717002,"805":0.02276421826982275,"806":0.004552713230645219,"807":-0.02597314852119445,"808":0.0014568361145536567,"809":0.004437356485439019,"810":0.02361507382129813,"811":-0.0017542899817953662,"812":-0.017170004232004297,"813":-0.00185162363111151,"814":-0.02660091513973921,"815":0.0005769598167970596,"816":-0.006993718798239497,"817":0.0027404888631580655,"818":0.0013426072496027716,"819":-0.00314269741454351,"820":0.0096531742780909,"821":0.0030191243973059618,"822":-0.001579335146082528,"823":0.0020440467143656056,"824":0.005557077478928759,"825":0.0049636715139292275,"826":-0.0028782802282946683,"827":-0.0014334629412116986,"828":-0.0006968832194382972,"829":0.0004565611192858248,"830":-0.02317587443502555,"831":0.013328311894879123,"832":0.022129406954654866,"833":-0.006608452701178682,"834":0.004588705377231319,"835":0.004195566350172682,"836":0.00862665360893205,"837":-0.002706608437668724,"838":0.0029890718867652687,"839":0.007270013328515725,"840":-0.015284555371538295,"841":-0.007041902106659941,"842":-0.009770638068947847,"843":-0.00027705887687828114,"844":-0.02211507132592542,"845":-0.000885888108970153,"846":-0.0026589424016243528,"847":0.018132176455292217,"848":-0.005212864156482038,"849":-0.002712075916567818,"850":-0.0006366259494089533,"851":-0.01329975335326213,"852":-0.01626864469115089,"853":-0.0013405070892098506,"854":-0.000670007419791537,"855":-0.007287648504135667,"856":0.011773469144833067,"857":0.0035117703484049074,"858":0.02152314156189566,"859":-0.0006983299466499035,"860":-0.009454424187327882,"861":-0.00177325428850656,"862":-0.02041573118010582,"863":0.0003254068592704197,"864":-0.0029858505568671773,"865":0.003535300686223045,"866":-0.02083827313169728,"867":0.029391138832426136,"868":-0.0010588210460974266,"869":0.0072299799373795135,"870":-0.015008317852601762,"871":-0.03252930199193488,"872":-0.05418096569250157,"873":0.0063631741075926606,"874":0.0013841489960864297,"875":-0.008807425908642122,"876":-0.005181324300599033,"877":0.00867090343971124,"878":0.012696905337681018,"879":-0.002899439228244247,"880":-0.017106566030252374,"881":0.006388613732411855,"882":0.00691352089589766,"883":-0.010901792487062422,"884":-0.022515837312111625,"885":-0.003407302160947665,"886":-0.0282547275427724,"887":-0.008380867282764493,"888":0.013993926893636445,"889":0.005528497403536943,"890":0.020474777592169743,"891":-0.015078298357660438,"892":-0.005614670989314115,"893":0.002348328417901206,"894":-0.01082651018972177,"895":-0.020591131668831857,"896":-0.013493632742731541,"897":0.004813940377342333,"898":-0.004295584371046066,"899":0.01913544109937642,"900":0.008287605789281961,"901":-0.010468320577185187,"902":-0.024316543798056065,"903":-0.004799952295503848,"904":-0.022075282432658057,"905":0.026230049580365757,"906":-0.013775984306107941,"907":0.023119085858437527,"908":-0.0031056475206008016,"909":-0.022238322533520375,"910":-0.010845398411272484,"911":-0.010157115135578071,"912":-0.0037844800337836462,"913":0.013564646103741492,"914":0.00866876161702901,"915":-0.004417741165542104,"916":0.0017163227591208204,"917":-0.0012206742830212316,"918":0.02114905509630284,"919":-0.004446213318531371,"920":-0.01702483734421965,"921":-0.01157273363359292,"922":-0.01131084549535168,"923":0.0023255233322316392,"924":-0.009956101394694236,"925":-0.010930878616230133,"926":0.011422413618592874,"927":0.018005105385685585,"928":0.0010432910620764772,"929":-0.005332703368402117,"930":-0.01061594966152834,"931":0.005795997904880784,"932":-0.0154028498666166,"933":-0.009903542580789976,"934":0.014620103198171098,"935":-0.0058858469396544846,"936":0.008210231094895255,"937":-0.0014232503652993975,"938":0.025326882685944425,"939":-0.009708702230092452,"940":-0.005087447551639113,"941":-0.0017335623146622055,"942":0.0159168191182496,"943":-0.0016551009083975074,"944":0.0019378409314747367,"945":-0.008672061508670982,"946":-0.0024623851633025972,"947":-0.015326589800127228,"948":-0.004820067141515631,"949":-0.0020868150077408072,"950":-0.0031987988876361556,"951":-0.004595401079111518,"952":0.002880853696088116,"953":-0.0011726789068583405,"954":0.007296768190704487,"955":-0.011972741673876857,"956":-0.007363501753832024,"957":0.01341109900608108,"958":0.0030657494131048155,"959":-0.00563209831698085,"960":0.009139222048957408,"961":0.00156462123316172,"962":-0.008112796336678448,"963":0.0018870487949192855,"964":0.008922235734632987,"965":-0.012215541186867502,"966":-0.01641554199591224,"967":0.017771468686211163,"968":0.0018054896348720364,"969":-0.005464163702339098,"970":0.002824897126193825,"971":-0.015439063867489786,"972":-0.01078955118026093,"973":0.0033859021645922705,"974":-0.0021475353940742362,"975":-0.008341478971097254,"976":-0.008839121116980275,"977":-0.0032655158282232965,"978":-0.006501221102792419,"979":-0.00417066605072998,"980":0.001580121478363478,"981":0.010119793426063258,"982":-0.021686303419770264,"983":-0.000010961010399604144,"984":0.015669571675206606,"985":0.0032124648069327324,"986":-0.004890950760095227,"987":0.019216342221418624,"988":-0.004210963468521196,"989":0.00964374149466829,"990":-0.004019539960733234,"991":0.0015741569328043357,"992":0.028090232014773925,"993":0.007108749192991867,"994":0.00020089889402869846,"995":0.0026848486391025024,"996":-0.0032361639094022265,"997":0.008928480519897555,"998":-0.007329290138107701,"999":0.003682275000150721,"1000":-0.008775901919001534,"1001":0.0023241169861782187,"1002":0.003671031903143082,"1003":0.0037944072211817587,"1004":-0.022306344587967004,"1005":0.0026582389497309526,"1006":-0.0014330919205642098,"1007":-0.008562224674516066,"1008":-0.006553332934986741,"1009":-0.0014237385146175464,"1010":0.006469303833053371,"1011":0.017827834576693676,"1012":0.0101319371686307,"1013":-0.00044766728854054937,"1014":0.012437377567799633,"1015":0.0011734460354144351,"1016":-0.005170366462574585,"1017":0.009447264624408376,"1018":0.00814398498861973,"1019":0.010948494982136374,"1020":0.0008736040913131148,"1021":-0.003899679681566224,"1022":-0.005876303083973754,"1023":0.011330963822933627,"1024":-0.0236045257980938,"1025":-0.017893207539907148,"1026":-0.004530728428595069,"1027":-0.0011758784904586609,"1028":0.007207512999824744,"1029":-0.0008819995832038284,"1030":0.00427037624338459,"1031":-0.010188358871711422,"1032":-0.015343676487281774,"1033":-0.008180446974425869,"1034":0.017564266732237696,"1035":0.003562960002871121,"1036":0.0006442432012672264,"1037":0.00030701909988796927,"1038":-0.0026838339477425442,"1039":-0.00029030970230563356,"1040":-0.0049647031259657005,"1041":0.00932632411266119,"1042":0.0036880983142515106,"1043":0.013146539403036407,"1044":0.0009394213646285869,"1045":-0.008045188826957386,"1046":0.0008203710987970227,"1047":-0.003066068625877709,"1048":0.009308037292599228,"1049":0.004590995519741315,"1050":0.007889497126916667,"1051":-0.009437562618707452,"1052":-0.018480506336431935,"1053":-0.004581500887024764,"1054":0.0019523760314132763,"1055":-0.004953810086545346,"1056":-0.0039489688153503165,"1057":-0.009543276641770473,"1058":0.001722790398891461,"1059":-0.008877381037773373,"1060":-0.006675666504659137,"1061":0.0008870414448281651,"1062":-0.016405206565366724,"1063":0.007114812663212561,"1064":-0.000888086470830362,"1065":-0.020183867812591762,"1066":-0.03367820504299344,"1067":0.027890114646369705,"1068":0.00549249253643526,"1069":-0.0024029909686541758,"1070":-0.005037849841579556,"1071":-0.00008282986439423765,"1072":-0.0031657290614375373,"1073":-0.013436136513848444,"1074":-0.0328783735260348,"1075":-0.01713261642908494,"1076":0.0036963743794252027,"1077":-0.022000864690320455,"1078":0.032349949862330286,"1079":0.011144282318880394,"1080":-0.006563158510611861,"1081":-0.009373631861248718,"1082":0.0016653483244816294,"1083":-0.013598141182236623,"1084":-0.00734038011201839,"1085":0.005335600846798346,"1086":0.017270885930160445,"1087":0.017085910053033976,"1088":0.00120964191903339,"1089":-0.013887034840454048,"1090":-0.0021091325669834447,"1091":-0.0165043689818462,"1092":0.024975210322157847,"1093":-0.023630162892940367,"1094":0.0028937930687395084,"1095":-0.0009483573611598562,"1096":0.006114110168325187,"1097":0.014938459218366371,"1098":-0.011196458332892505,"1099":-0.023162677802060768,"1100":0.009335775193252766,"1101":0.009858935695542498,"1102":-0.0002808661790856788,"1103":0.0022721707263737936,"1104":0.01998145654544443,"1105":0.010533674515624055,"1106":0.013091650763717554,"1107":0.006488574454911339,"1108":0.009016117086679976,"1109":-0.004580026416333131,"1110":0.00144481326318014,"1111":-0.01933458293191751,"1112":-0.028947891577329014,"1113":-0.004952358677828328,"1114":-0.009950637611503742,"1115":-0.01290045285777102,"1116":0.0007649761006634471,"1117":-0.012965918186555757,"1118":0.019835348247830373,"1119":-0.0032430182263498758,"1120":0.0008290014610276105,"1121":0.0018730872401442557,"1122":-0.014726329541734782,"1123":-0.017429979853851835,"1124":0.015205404064309997,"1125":-0.022781084864083864,"1126":-0.007286003367394608,"1127":0.009379582960573068,"1128":-0.006746929474412494,"1129":0.00433818188187632,"1130":0.002547955950941769,"1131":-0.023973050573531537,"1132":0.00633209888712214,"1133":0.007483236683424334,"1134":-0.03248043955085944,"1135":-0.005365421636728009,"1136":-0.004213624901162601,"1137":0.0005157150397179823,"1138":0.004462356533308454,"1139":-0.002298401449584036,"1140":-0.003677666852884334,"1141":-0.002453741104516844,"1142":0.005466451106644144,"1143":-0.007437640346841902,"1144":-0.009230799839322764,"1145":0.006981580109631381,"1146":0.002655153303981779,"1147":0.004961772734796263,"1148":0.00554337223880419,"1149":-0.0071779572627420326,"1150":0.0030378376932225374,"1151":-0.020142128658361434,"1152":-0.012211300041933668,"1153":0.004856917561035766,"1154":-0.012588056787394813,"1155":0.00034565487196788324,"1156":-0.0021663581612228755,"1157":-0.012959716614451682,"1158":-0.022731286720778926,"1159":0.0022137735179006985,"1160":0.015879044850551628,"1161":-0.013493999384810069,"1162":0.006089106564102534,"1163":-0.0017812721903023407,"1164":0.016354261294991273,"1165":0.0029216683470897147,"1166":-0.004707761566173506,"1167":-0.01012721635154988,"1168":-0.0018024859064825144,"1169":0.0021688769036231686,"1170":-0.0008001395226722216,"1171":-0.013244421127203016,"1172":-0.015137538587926552,"1173":-0.0015760880094402346,"1174":0.00853191477160549,"1175":-0.0018378699140436515,"1176":0.0028724506314990335,"1177":-0.008833357469725562,"1178":0.005380783668771255,"1179":0.0005116696068849388,"1180":0.015295664544010674,"1181":-0.018937763491673233,"1182":0.0026999558571880575,"1183":-0.0063973254263571385,"1184":0.0435141746055454,"1185":0.011080522982999993,"1186":0.0011287941650154072,"1187":-0.004092747847216971,"1188":-0.0033790567299306863,"1189":-0.006917317003058174,"1190":0.005154054294643097,"1191":-0.006988348945511021,"1192":0.014666300572178652,"1193":0.0004117379935976323,"1194":0.012937124476995743,"1195":0.008805996237563389,"1196":-0.00105194954830831,"1197":-0.005731874158313354,"1198":-0.02521738642897432,"1199":-0.005985691036422584,"1200":0.01572352468184667,"1201":-0.011201558395085014,"1202":-0.021285195052572054,"1203":0.004208775212604801,"1204":-0.0054306528377363284,"1205":0.004465612471261839,"1206":0.02990647249767551,"1207":0.024751177543195425,"1208":-0.0047359599439863054,"1209":-0.012653572572900784,"1210":-0.0054889571281772935,"1211":0.005688077952399336,"1212":-0.01282041235092836,"1213":-0.01541461347130065,"1214":0.018176137748022146,"1215":-0.002500579727063307,"1216":0.0030692603934440546,"1217":0.00564282553534799,"1218":0.004976817903735475,"1219":-0.006113490846237489,"1220":0.013005568556623803,"1221":0.001488075620459311,"1222":-0.023596430863994673,"1223":0.0034432086312470365,"1224":-0.00022683562251507992,"1225":0.00021809327863779381,"1226":0.013742001961586875,"1227":0.02651081993172689,"1228":0.0018295327125610668,"1229":0.0036695690056841542,"1230":-0.0058793703340928125,"1231":0.02120771692645018,"1232":-0.02034060698351036,"1233":-0.007057471696121602,"1234":0.006490575284620064,"1235":-0.006525285833266595,"1236":0.008225142369327528,"1237":-0.0009436321638493483,"1238":0.010754268788971502,"1239":-0.0004020514298101761,"1240":-0.029334819902051643,"1241":0.00003938200258034462,"1242":0.024329519091964187,"1243":-0.00008415720348762443,"1244":-0.007674721893454462,"1245":-0.010848392465045141,"1246":-0.018542084816558,"1247":-0.018831302135395824,"1248":0.010629046095509048,"1249":0.0016879997886002807,"1250":0.02057022929201785,"1251":0.014982669080985327,"1252":-0.02651731898743945,"1253":0.003402194607564195,"1254":0.02125344942658596,"1255":-0.0004590544229573868,"1256":-0.016450323767509146,"1257":-0.017293084181398775,"1258":-0.01617404983030887,"1259":-0.0050466285595796995,"1260":0.0007276576158265234,"1261":-0.0007712620040073477,"1262":-0.014099024822501065,"1263":0.014189604963122753,"1264":-0.012517088658074488,"1265":-0.008929653402282328,"1266":0.00293862950076242,"1267":0.0039633424862583625,"1268":-0.0018446161410689828,"1269":-0.003916345070238212,"1270":0.05029311274828089,"1271":-0.014705705141525548,"1272":-0.014768077226602684,"1273":0.007643666441585485,"1274":-0.013013674430366336,"1275":-0.0004028609153668092,"1276":-0.013353149287095358,"1277":-0.005643146422026745,"1278":0.006792433075298702,"1279":0.01202962004676944,"1280":0.009127139104435163,"1281":-0.004407511764949883,"1282":0.006972390263612624,"1283":0.004689704288935303,"1284":0.009030992231695303,"1285":-0.008986076508764483,"1286":0.007229424769543641,"1287":-0.0013700090324727794,"1288":0.007385286215525545,"1289":0.005023906092137617,"1290":-0.01215329876160244,"1291":-0.0005192489751231836,"1292":-0.01732437848569997,"1293":-0.009181446169374094,"1294":0.006678226991901296,"1295":-0.008635766162709686,"1296":0.004995258177687525,"1297":-0.01031258439753686,"1298":-0.006405347439632734,"1299":0.01827960564425885,"1300":-0.028023233914160024,"1301":-0.02321041382690149,"1302":-0.010432401291036194,"1303":0.0024021364135509054,"1304":-0.005005411082397018,"1305":0.011355645255361632,"1306":-0.002704774157081417,"1307":0.026445191968052947,"1308":0.0015333263750257876,"1309":-0.002985594626160887,"1310":-0.01757736211444384,"1311":-0.010987800919605316,"1312":-0.0240936479707677,"1313":0.004425791701425006,"1314":0.015440684238386907,"1315":-0.012022271109551955,"1316":-0.002972062618690642,"1317":0.007622535539306426,"1318":0.017396921712312843,"1319":-0.010422726544852044,"1320":-0.0114259642127998,"1321":-0.005437697563522706,"1322":0.0030296266767893066,"1323":0.0004571225996035213,"1324":-0.008636254670309993,"1325":0.0025562462418063175,"1326":-0.016668042385701767,"1327":0.006871738952560512,"1328":-0.004671602167864761,"1329":-0.002975347254512213,"1330":0.0157916178969988,"1331":0.008929590368488513,"1332":0.010643989175361778,"1333":0.012459499024410218,"1334":-0.02532831934712431,"1335":-0.0029012836220468053,"1336":-0.006907184348479805,"1337":-0.0034568606808387282,"1338":-0.0014061503156772544,"1339":0.0017449058645071767,"1340":0.006158187112867423,"1341":-0.007047265140773161,"1342":0.0317421324274617,"1343":-0.008406675751042942,"1344":0.005635044545713322,"1345":0.004247535367439227,"1346":0.011073600370207621,"1347":-0.03670705816892869,"1348":0.003772141299947752,"1349":-0.004446877412021682,"1350":-0.005854730271440118,"1351":-0.0006020179599693996,"1352":-0.03233706847653324,"1353":-0.006547054882429382,"1354":0.01709746050596725,"1355":0.011343776223175192,"1356":-0.005112301253693199,"1357":-0.0010371179717362411,"1358":0.0035490563203193566,"1359":-0.007104806760438424,"1360":0.021929504768103403,"1361":-0.008619010052899683,"1362":-0.012406413615676792,"1363":0.009860139985302448,"1364":-0.0009536347780770557,"1365":-0.004256327677478674,"1366":-0.0004078411661360775,"1367":0.0202615237579119,"1368":0.0034206965965703786,"1369":0.016519317117131838,"1370":0.010392189492850366,"1371":-0.019952886079374167,"1372":-0.028931796653721677,"1373":-0.0009297921028891073,"1374":0.001739373677343085,"1375":-0.007905512444191071,"1376":0.00831124826414229,"1377":-0.00670834494110107,"1378":-0.011655899844625594,"1379":0.013622325992882824,"1380":-0.02388795268640546,"1381":0.0008471535886196769,"1382":-0.00474631645755112,"1383":-0.008808519676065744,"1384":0.013273490092707577,"1385":0.020932964056988967,"1386":0.021423164161501695,"1387":0.004930119516333649,"1388":0.00000839808904527547,"1389":0.0014516897177013106,"1390":0.02169155475412278,"1391":0.010402135276085744,"1392":-0.01255149462438739,"1393":-0.0026717097527158176,"1394":-0.006490919769787794,"1395":-0.004905447158369484,"1396":-0.0021151202912683617,"1397":0.0021919685129175854,"1398":0.020774249867474108,"1399":-0.0010738071057739052,"1400":-0.02764316454557876,"1401":0.007525993241791905,"1402":0.00043115672567449513,"1403":0.00803048687513766,"1404":-0.01974317988538409,"1405":0.01748126668419332,"1406":-0.010863287529826427,"1407":0.003411831955270434,"1408":-0.0032086872261961777,"1409":-0.011326981070550761,"1410":-0.006301555454527686,"1411":-0.0006952497588602321,"1412":0.009837549058051223,"1413":-0.0011727862980392995,"1414":0.025574214182972104,"1415":0.004905321924551118,"1416":0.0017964666301861578,"1417":-0.015666759577041278,"1418":-0.0004639893535423119,"1419":0.006279803415427914,"1420":-0.022551796516766445,"1421":-0.023178507061368567,"1422":-0.015528437647663419,"1423":0.01889871650246294,"1424":0.0177535972014221,"1425":-0.007006501943247604,"1426":-0.0048788948196804415,"1427":0.0240290966035218,"1428":-0.000795391060513369,"1429":-0.005744130351271408,"1430":-0.00236816836431503,"1431":-0.01601558231232625,"1432":-0.01036430256035382,"1433":-0.011588590569043029,"1434":-0.03152516481066635,"1435":0.01813190123106717,"1436":0.010952587283168242,"1437":-0.019335890122894255,"1438":-0.008827264321127846,"1439":-0.015148760961037351,"1440":0.018430846157435676,"1441":-0.013850956629487732,"1442":0.008762570394873449,"1443":0.016674578870477824,"1444":0.015221524329691916,"1445":-0.016497633821114,"1446":0.013220253007175187,"1447":-0.041130722871784375,"1448":-0.003005888016887571,"1449":-0.03012533560012835,"1450":-0.0025849318869406264,"1451":-0.021283960270523206,"1452":0.013689850259311478,"1453":-0.00977682617435971,"1454":-0.011370543571407338,"1455":-0.011271132396756046,"1456":-0.0239420694697932,"1457":0.002980841302411603,"1458":0.01147564031923482,"1459":-0.01909217537124873,"1460":-0.014490076366257586,"1461":-0.0025936640146736385,"1462":0.0012646940328388738,"1463":0.006200997764414831,"1464":-0.023019335988837316,"1465":-0.001588347077242655,"1466":-0.008625806117652816,"1467":-0.007977248740982107,"1468":-0.009335010380498075,"1469":0.0007278854809719029,"1470":-0.005972070602825453,"1471":0.02412020150787409,"1472":-0.0306954834966894,"1473":-0.0004062326591212044,"1474":-0.03408186487687127,"1475":-0.0033291364470583065,"1476":-0.008719450884693516,"1477":0.011839490170002125,"1478":-0.0009143745167814277,"1479":-0.000428910744094809,"1480":0.037609975254073134,"1481":-0.008064331527489338,"1482":-0.002374535709584508,"1483":-0.01082899392143761,"1484":0.012512634123232265,"1485":0.0055664169335928005,"1486":-0.005043148591012498,"1487":0.021106621186294673,"1488":0.0061482045080054745,"1489":-0.009688639357345532,"1490":0.009431315583030115,"1491":-0.004531600748913747,"1492":-0.012655681028342322,"1493":-0.006155916666623328,"1494":0.007665048112885649,"1495":0.002562450792749441,"1496":0.008237763860675354,"1497":-0.003595070081871958,"1498":-0.03676550187853203,"1499":0.0002013243058076815,"1500":0.032295228942772335,"1501":-0.02596168644537821,"1502":0.013248703933804794,"1503":-0.006160273209431313,"1504":0.0012389264514012979,"1505":-0.016146180074441227,"1506":0.015407560071840482,"1507":-0.023340417925128573,"1508":0.015122868385112558,"1509":0.004655358397752794,"1510":-0.01085987890487606,"1511":-0.022901460070525386,"1512":-0.008463162473817726,"1513":-0.005103290911327458,"1514":0.011337434531662912,"1515":0.0026464941517489143,"1516":0.009840896274572235,"1517":-0.009039572841663998,"1518":-0.024448934933300262,"1519":-0.0037799863497411704,"1520":0.03134186694792081,"1521":-0.002239996670530073,"1522":0.010833582713411484,"1523":-0.0004261355390764251,"1524":-0.03148543689705583,"1525":0.003438381182752052,"1526":0.006544974572176752,"1527":-0.016804064638857318,"1528":-0.006271080465292658,"1529":-0.016332059432284173,"1530":0.014855428275119563,"1531":-0.01865440436474196,"1532":-0.01896272395133892,"1533":0.019709649011794336,"1534":-0.0211667323500803,"1535":-0.005804417662495097,"1536":0.003898014006886492,"1537":-0.003911952521321101,"1538":-0.0013422963441706917,"1539":-0.021789652474719777,"1540":-0.005375138908365789,"1541":-0.005837547527060662,"1542":-0.0375581888337408,"1543":0.020579232743411693,"1544":0.02060040349081018,"1545":-0.0026897652601242804,"1546":0.004449548145804297,"1547":0.02701242322977089,"1548":-0.007411322716510578,"1549":-0.013410894782483073,"1550":-0.010294657725626842,"1551":0.011162957144834843,"1552":-0.0076280126845753825,"1553":-0.009228780487231388,"1554":0.006846526461704072,"1555":-0.006490674346808035,"1556":-0.00427550325018988,"1557":-0.01094064616401365,"1558":-0.0005522110729022964,"1559":0.0026072589248919676,"1560":-0.005142176917186666,"1561":-0.006553557431162033,"1562":0.0006791181158838728,"1563":-0.01822858702326962,"1564":0.007664401771694319,"1565":-0.025891998277954624,"1566":-0.01771989239864353,"1567":0.00382645545390049,"1568":0.012326724524275127,"1569":-0.00029918212273893213,"1570":0.020935458224537788,"1571":-0.034654280131376475,"1572":0.01398490234853053,"1573":0.0008471953865236901,"1574":-0.020404560104690245,"1575":-0.02379339304035955,"1576":-0.015668273680632762,"1577":-0.03990082111607357,"1578":-0.01027571058365708,"1579":0.010745543555044418,"1580":0.008746750522716222,"1581":-0.004464913358447699,"1582":0.04370542440135218,"1583":-0.003210061555844994,"1584":0.007807749308494463,"1585":0.029556340081982085,"1586":0.0225723320783566,"1587":-0.0412949702854147,"1588":-0.0165721464487084,"1589":-0.003158329099897917,"1590":0.004260357869781103,"1591":0.0026671836629418733,"1592":-0.0003039970936072133,"1593":-0.011214375032979621,"1594":-0.0032868921812115523,"1595":-0.022551530872197342,"1596":-0.004604004548656736,"1597":0.007657301404204803,"1598":0.019781421918785028,"1599":0.022259174555332505,"1600":-0.01838495373329383,"1601":-0.013510997722595208,"1602":-0.012115347544252735,"1603":-0.00575380481549929,"1604":-0.004054607786698433,"1605":0.007713383740223602,"1606":-0.006489724004632393,"1607":0.0010048394134093742,"1608":0.037989565038341305,"1609":0.009575952509028002,"1610":0.006885212494056924,"1611":-0.006822360110321331,"1612":0.014810902006022137,"1613":-0.01681857087840767,"1614":-0.008490710134912127,"1615":-0.012330538983588152,"1616":0.00745258465998155,"1617":-0.006275478873087758,"1618":-0.013265625203041522,"1619":0.026792364494257835}},{"sx":1,"sy":1,"depth":1620,"w":{"0":-0.09095006723159957,"1":0.015391986043430655,"2":-0.04081901806871945,"3":0.03310974677743815,"4":-0.12820601467779433,"5":-0.09077634138230532,"6":0.029142563701401208,"7":-0.11622424685420334,"8":0.07771547250619999,"9":-0.1457520303180325,"10":-0.060807647897318684,"11":-0.0017242429417936866,"12":-0.08804080651954266,"13":0.08257020114984417,"14":0.024939218803117415,"15":-0.04361404182641624,"16":0.011828335828977795,"17":0.015084106251291366,"18":0.024122884037680942,"19":-0.03357545122968443,"20":0.0688116650718275,"21":0.05583316179678752,"22":-0.036324189409251396,"23":0.06692856070865257,"24":-0.0664569896054739,"25":-0.035611675124800124,"26":0.0692160786401354,"27":-0.06258470691182237,"28":0.013823809914235027,"29":0.03480806450415786,"30":-0.11386946585107395,"31":-0.2016461595268778,"32":0.07354663256480892,"33":0.06599892920980296,"34":0.038125830068994365,"35":-0.1622005760359904,"36":-0.008369302303576529,"37":-0.03228363100731808,"38":-0.015471198723910807,"39":0.2128899811340502,"40":-0.2348617960899629,"41":0.0908940399584621,"42":0.27899227794918646,"43":-0.2593870793290891,"44":0.023904644176071896,"45":0.19428991397696965,"46":-0.0661079463897287,"47":0.22444800002959953,"48":0.293356816171562,"49":-0.002034117836148272,"50":0.07886680313976308,"51":-0.02631647530819803,"52":0.20600914967376602,"53":0.5374536675653113,"54":0.21648219605741897,"55":0.2610513041173676,"56":-0.16506297758705243,"57":-0.10050239602371291,"58":0.1542423145371802,"59":0.6196202319861195,"60":-0.07143407842641748,"61":-0.12646309072214343,"62":0.004284157691787003,"63":-0.0756417242638707,"64":-0.0013239016053498056,"65":0.04944265352207914,"66":0.056510008989931734,"67":-0.02081909286768269,"68":-0.07341326287290659,"69":0.01894903328176511,"70":-0.019687420665664996,"71":-0.011111550742184246,"72":0.23765086425862927,"73":-0.05563949684652062,"74":0.07560877603350726,"75":-0.0409310388676255,"76":0.024144270722341793,"77":0.0372514623996083,"78":0.012343195778242508,"79":-0.08533458520644112,"80":-0.015229742143605757,"81":-0.0018715475902151637,"82":-0.021032323619805834,"83":-0.003362370798149379,"84":0.0801294877357204,"85":0.08891195118984856,"86":0.04301498529102845,"87":-0.03414344533047041,"88":-0.04000238162826899,"89":-0.026115543949396948,"90":0.005756614263215065,"91":-0.021987092350108203,"92":0.11527761775332997,"93":0.005409414678796895,"94":0.10732774767026255,"95":0.05499663317055576,"96":-0.013948741706065733,"97":-0.0037790633554856436,"98":-0.06793688462121511,"99":-0.021525240880016897,"100":-0.023684586367090088,"101":0.005151715887990706,"102":0.02114989672410843,"103":0.00420064193717152,"104":-0.028897195141234903,"105":-0.022013870240758567,"106":0.0052544889178534615,"107":0.02465707052093513,"108":-0.001215034312799717,"109":-0.0017534495773475292,"110":-0.014335749365159543,"111":0.0008436079023528807,"112":-0.049269148511467666,"113":0.019504898191188988,"114":-0.021720957567460973,"115":-0.01095356024778728,"116":-0.0045019219655334265,"117":-0.035285621254465646,"118":0.018925211031117176,"119":-0.04049670489016841,"120":0.012738657494001117,"121":0.005713283298795107,"122":-0.013043969976282472,"123":-0.004791022077057262,"124":-0.006918632026459532,"125":-0.0040062457493649775,"126":0.0008767186072919777,"127":0.001545436993793915,"128":-0.01803500429640276,"129":0.0018164773580541503,"130":-0.00409678889776475,"131":-0.009471066461366178,"132":-0.016523612949670696,"133":0.008805877741228497,"134":0.013726523075716826,"135":0.018699165875862303,"136":-0.007931429055084224,"137":0.025049195198020076,"138":-0.009642669087660469,